svm_type c_svc
kernel_type rbf
gamma 0.0078125
nr_class 2
total_sv 12652
rho 4.99511
label 1 -1
probA -15.7992
probB -12.1494
nr_sv 6261 6391
SV
32 1:0.821007 2:0.717187 3:0.5437 4:0.900409 5:-0.401164 6:-0.357582 7:0.941538 8:0.940086 9:0.921016 10:0.320172 11:0.728689 12:-0.248388 13:0.92295 14:0.911366 15:0.615365 
32 1:0.754927 2:0.0572546 3:0.623876 4:0.895871 5:-0.401164 6:-0.357582 7:0.708022 8:0.699514 9:0.695394 10:-0.0486539 11:-0.238996 12:0.106584 13:-0.263282 14:-0.460115 15:-0.331269 
32 1:0.754153 2:0.550599 3:0.621603 4:0.594248 5:-0.401164 6:0.920249 7:0.079203 8:0.0817918 9:0.840659 10:0.169391 11:0.933849 12:0.825131 13:0.59093 14:0.83496 15:0.471272 
32 1:0.701031 2:0.0726641 3:0.702031 4:0.664947 5:-0.401164 6:-0.357582 7:0.802506 8:0.796564 9:0.229474 10:-0.396528 11:-0.522544 12:0.0405893 13:-0.267995 14:-0.433703 15:-0.414834 
32 1:0.691416 2:0.481477 3:0.507748 4:0.62315 5:0.654962 6:0.847361 7:0.0517249 8:0.0525366 9:0.79447 10:0.424344 11:0.902059 12:0.804141 13:0.344294 14:0.94452 15:0.470886 
32 1:0.687441 2:0.489277 3:0.524811 4:0.610438 5:0.660063 6:0.769896 7:0.275251 8:0.27206 9:0.815623 10:0.420011 11:0.830529 12:0.63289 13:0.591576 14:0.918184 15:0.230343 
32 1:0.67142 2:0.362652 3:-0.461564 4:0.722469 5:-0.401164 6:-0.357582 7:-0.27616 8:-0.279397 9:-0.35877 10:0.181717 11:0.793037 12:-0.0414573 13:0.741945 14:0.632064 15:0.160013 
32 1:0.662432 2:0.22312 3:0.625115 4:0.641435 5:-0.401164 6:-0.357582 7:-0.27616 8:-0.279397 9:0.158511 10:0.20813 11:0.474734 12:0.466813 13:0.062724 14:0.0647209 15:0.0659327 
32 1:0.661314 2:0.313728 3:0.671145 4:0.0125413 5:-0.401164 6:-0.357582 7:0.77133 8:0.758459 9:0.0134297 10:-0.319127 11:-0.183559 12:-0.223815 13:0.0749922 14:0.15858 15:0.530316 
32 1:0.650084 2:0.257373 3:-0.316731 4:-0.0838511 5:0.570116 6:-0.376219 7:-0.27616 8:-0.279397 9:-0.35877 10:-0.196969 11:0.203356 12:-0.246077 13:-0.214602 14:-0.311237 15:-0.160406 
32 1:0.635123 2:0.402545 3:0.58028 4:0.211013 5:-0.401164 6:0.770283 7:0.38109 8:0.375217 9:0.848666 10:0.501424 11:0.93179 12:0.604663 13:0.65211 14:0.837145 15:0.407254 
32 1:0.630211 2:-0.020306 3:-0.49196 4:0.527289 5:-0.401164 6:-0.357582 7:-0.27616 8:-0.279397 9:-0.35877 10:-0.149532 11:0.0147345 12:0.161274 13:0.306419 14:-0.162861 15:0.564626 
32 1:0.596589 2:0.354542 3:0.463141 4:0.718818 5:-0.401164 6:-0.357582 7:-0.27616 8:-0.279397 9:-0.35877 10:-0.339823 11:0.0102806 12:-0.223815 13:-0.247302 14:-0.311237 15:-0.160406 
32 1:0.573579 2:-0.240353 3:0.177223 4:0.433057 5:-0.164857 6:-0.0152245 7:0.250812 8:0.246142 9:0.266516 10:-0.248697 11:0.00589471 12:-0.0740195 13:0.0321061 14:-0.0368613 15:0.177748 
32 1:0.540795 2:-0.0179171 3:0.620206 4:0.565754 5:-0.235603 6:0.0729784 7:-0.0849542 8:-0.0890681 9:0.208846 10:-0.070687 11:0.146045 12:-0.387492 13:0.423731 14:0.084553 15:-0.495196 
32 1:0.539161 2:0.274621 3:-0.545064 4:0.548389 5:-0.401164 6:-0.369101 7:-0.27616 8:-0.279397 9:-0.17101 10:0.369723 11:0.447608 12:0.527527 13:0.746035 14:0.623781 15:0.0874851 
32 1:0.513166 2:-0.145234 3:-0.49196 4:0.487679 5:-0.401164 6:-0.357582 7:-0.27616 8:-0.279397 9:-0.35877 10:-0.141014 11:0.460842 12:-0.223815 13:-0.211393 14:-0.195544 15:-0.0447891 
32 1:0.491768 2:0.300993 3:-0.305489 4:0.505516 5:-0.401164 6:-0.357582 7:-0.27616 8:-0.279397 9:-0.35877 10:0.0369543 11:0.738051 12:-0.223815 13:0.808709 14:0.643233 15:0.385199 
32 1:0.489723 2:0.30389 3:-0.482193 4:-0.398877 5:0.33703 6:0.26414 7:0.61785 8:0.613286 9:0.425762 10:-0.241627 11:0.23599 12:-0.223815 13:-0.154135 14:0.356719 15:0.307726 
32 1:0.478716 2:0.159726 3:0.576832 4:-0.396173 5:-0.401164 6:-0.357582 7:-0.27616 8:-0.279397 9:0.639161 10:-0.0935817 11:-0.210876 12:-0.223815 13:0.176499 14:0.0201256 15:0.249687 
32 1:0.477845 2:0.167361 3:0.357942 4:0.682687 5:-0.401164 6:-0.357582 7:-0.27616 8:-0.279397 9:-0.35877 10:-0.172839 11:-0.217866 12:0.563857 13:-0.0380555 14:0.246347 15:0.0260509 
32 1:0.473638 2:0.403886 3:-0.0853106 4:0.550286 5:-0.401164 6:-0.357582 7:-0.218585 8:-0.232016 9:-0.35877 10:0.722214 11:0.666328 12:0.211799 13:0.801929 14:0.805595 15:0.277188 
32 1:0.465958 2:0.105017 3:0.43719 4:0.57153 5:-0.401164 6:-0.357582 7:-0.27616 8:-0.279397 9:0.807576 10:-0.309633 11:-0.0106776 12:-0.223815 13:-0.283047 14:-0.311237 15:-0.160406 
32 1:0.449624 2:0.0989821 3:-0.605529 4:-0.284155 5:0.541957 6:-0.129123 7:-0.286267 8:-0.293799 9:-0.303066 10:0.366906 11:0.498371 12:0.106758 13:0.588347 14:0.119231 15:0.320777 
32 1:0.43621 2:0.0757323 3:0.42078 4:0.123915 5:0.814861 6:0.752785 7:0.706547 8:0.706264 9:0.61155 10:0.520317 11:0.905401 12:0.671392 13:0.619833 14:0.961582 15:0.472259 
32 1:0.434408 2:0.342761 3:0.443274 4:0.293922 5:0.52575 6:0.787901 7:0.39614 8:0.384711 9:0.568857 10:0.60189 11:0.645615 12:0.934752 13:0.677058 14:0.918649 15:0.31941 
32 1:0.431928 2:0.56561 3:-0.50375 4:0.444258 5:-0.401164 6:-0.357582 7:-0.27616 8:-0.279397 9:-0.35877 10:0.748147 11:0.78195 12:-0.2162 13:0.959283 14:0.748012 15:0.782132 
32 1:0.418836 2:0.145312 3:0.330763 4:0.352668 5:-0.401164 6:-0.357582 7:-0.291415 8:-0.294594 9:-0.35877 10:0.288991 11:-0.196943 12:0.492835 13:0.342671 14:-0.306518 15:0.496422 
32 1:0.417799 2:-0.172031 3:-0.533187 4:0.420172 5:-0.401164 6:-0.357582 7:-0.27616 8:-0.279397 9:-0.372466 10:-0.251937 11:-0.256504 12:0.400151 13:0.27641 14:-0.249928 15:0.632842 
32 1:0.416796 2:0.238198 3:0.135212 4:0.445882 5:-0.401164 6:-0.367633 7:-0.27616 8:-0.279397 9:-0.35877 10:0.040609 11:0.226763 12:0.510237 13:0.898524 14:0.865222 15:0.772611 
32 1:0.407908 2:0.35551 3:0.336255 4:0.809159 5:-0.401164 6:-0.0862939 7:0.866451 8:0.858815 9:0.460525 10:0.468013 11:0.759785 12:-0.23755 13:0.570129 14:-0.0882899 15:-0.0471187 
32 1:0.40606 2:0.263456 3:-0.0604109 4:0.284371 5:-0.401164 6:-0.357582 7:-0.27616 8:-0.279397 9:-0.348875 10:0.405264 11:0.731268 12:0.703405 13:0.436895 14:0.527236 15:-0.26037 
32 1:0.402837 2:0.307612 3:0.0432918 4:0.431964 5:-0.401164 6:-0.35864 7:-0.27616 8:-0.279397 9:-0.35877 10:0.169262 11:0.893624 12:0.0561828 13:0.877073 14:0.855098 15:-0.0743113 
32 1:0.38607 2:-0.44829 3:0.647322 4:-0.316847 5:-0.401164 6:-0.357582 7:-0.291863 8:-0.296656 9:-0.104234 10:-0.439659 11:-0.327387 12:0.504884 13:-0.52616 14:-0.385075 15:-0.231479 
32 1:0.378573 2:-0.239268 3:-0.269369 4:0.379974 5:-0.401164 6:-0.357582 7:-0.27616 8:-0.279397 9:-0.35877 10:-0.214034 11:-0.392579 12:0.41193 13:0.391259 14:-0.333495 15:0.556583 
32 1:0.372238 2:0.424479 3:-0.000988388 4:0.400645 5:-0.453745 6:-0.357582 7:0.15952 8:0.168211 9:-0.312499 10:0.779786 11:0.750506 12:0.85891 13:0.60331 14:0.767747 15:-0.156156 
32 1:0.364796 2:0.325466 3:-0.0563895 4:0.370988 5:-0.401164 6:-0.357582 7:-0.27616 8:-0.279397 9:-0.35877 10:0.812464 11:0.875276 12:0.0876175 13:0.905528 14:0.915668 15:-0.075158 
32 1:0.358117 2:-0.0114795 3:0.108223 4:0.445968 5:-0.401164 6:-0.357582 7:0.587292 8:0.581591 9:-0.130278 10:-0.0582292 11:-0.921088 12:0.697583 13:0.282623 14:-0.250424 15:-0.384301 
32 1:0.357259 2:0.195869 3:-0.278519 4:0.452478 5:-0.401164 6:-0.357582 7:-0.27616 8:-0.279397 9:-0.35877 10:-0.0367626 11:0.670991 12:0.516319 13:-0.153373 14:0.808814 15:-0.257772 
32 1:0.353375 2:-0.170766 3:-0.49196 4:0.293819 5:-0.401164 6:-0.357582 7:-0.27616 8:-0.279397 9:-0.35877 10:-0.406758 11:-0.192358 12:-0.223815 13:-0.214602 14:0.192418 15:-0.160406 
32 1:0.350341 2:0.331305 3:-0.133402 4:0.532933 5:-0.440337 6:-0.357582 7:-0.27616 8:-0.279397 9:-0.35877 10:0.503212 11:0.21267 12:0.795869 13:0.74718 14:0.632965 15:0.0646816 
32 1:0.349188 2:-0.00416133 3:-0.540555 4:-0.389021 5:0.0963586 6:0.667327 7:-0.255502 8:-0.25877 9:-0.0714793 10:-0.393031 11:-0.104108 12:-0.223815 13:-0.178043 14:0.534573 15:-0.149849 
32 1:0.347084 2:0.133476 3:-0.504785 4:0.341074 5:-0.417252 6:-0.357582 7:-0.340439 8:-0.343238 9:-0.377482 10:0.295325 11:-0.247825 12:0.514255 13:-0.122416 14:-0.283676 15:-0.352374 
32 1:0.344096 2:0.229219 3:0.0487575 4:0.158729 5:-0.401164 6:-0.373749 7:-0.27616 8:-0.279397 9:-0.35877 10:0.291164 11:0.823895 12:0.566477 13:0.260883 14:0.8214 15:-0.290477 
32 1:0.337399 2:0.437234 3:-0.49196 4:0.430208 5:-0.401164 6:-0.357582 7:-0.27616 8:-0.279397 9:-0.35877 10:0.806338 11:0.703425 12:-0.260459 13:0.843579 14:0.286582 15:0.467397 
32 1:0.332883 2:-0.136018 3:-0.49196 4:0.331238 5:-0.421816 6:-0.357582 7:-0.27616 8:-0.279397 9:-0.35877 10:-0.13176 11:-0.181831 12:0.157084 13:0.29683 14:-0.306678 15:-0.0882383 
32 1:0.319726 2:0.26871 3:0.306032 4:0.291469 5:-0.401164 6:-0.357582 7:-0.159148 8:-0.16236 9:-0.311135 10:0.522346 11:0.570978 12:0.35077 13:0.841115 14:0.688116 15:-0.124814 
32 1:0.318689 2:0.0925154 3:-0.49196 4:0.450785 5:-0.401164 6:-0.357582 7:-0.27616 8:-0.279397 9:-0.35877 10:0.115475 11:0.862623 12:0.185096 13:0.922211 14:0.52125 15:0.594733 
32 1:0.3181 2:0.199959 3:0.200845 4:0.264207 5:-0.401164 6:0.0877843 7:-0.0683224 8:-0.0466398 9:0.545783 10:-0.0552813 11:0.281348 12:-0.223815 13:-0.214602 14:0.595044 15:-0.181343 
32 1:0.312945 2:0.514821 3:-0.49196 4:0.383719 5:-0.415733 6:-0.357582 7:-0.27616 8:-0.279397 9:-0.35877 10:0.618121 11:0.927017 12:0.481948 13:0.71283 14:0.953184 15:0.725144 
32 1:0.312897 2:-0.387516 3:0.00940605 4:0.334675 5:-0.430798 6:0.137661 7:-0.434523 8:-0.437996 9:-0.331801 10:0.0744527 11:0.0575089 12:0.667003 13:0.0214352 14:0.0327806 15:0.428678 
32 1:0.307021 2:0.319982 3:-0.212448 4:0.377916 5:-0.401164 6:-0.257817 7:-0.27616 8:-0.279397 9:-0.35877 10:0.768337 11:0.633972 12:-0.267223 13:0.866078 14:0.812662 15:-0.0134916 
32 1:0.305194 2:0.125727 3:-0.49196 4:0.378353 5:-0.401164 6:-0.357582 7:-0.27616 8:-0.279397 9:-0.35877 10:0.691239 11:0.669949 12:0.0154837 13:0.802727 14:0.60879 15:-0.124217 
32 1:0.29804 2:0.0909148 3:-0.139222 4:0.228561 5:-0.426007 6:-0.357582 7:-0.199341 8:-0.203186 9:-0.3508 10:0.219068 11:-0.300454 12:0.483993 13:0.0358805 14:-0.378636 15:-0.417692 
32 1:0.297151 2:-0.1103 3:-0.255075 4:0.221284 5:-0.401164 6:-0.357582 7:-0.27616 8:-0.279397 9:-0.372079 10:-0.167502 11:-0.404721 12:0.440977 13:0.395616 14:-0.285327 15:0.2763 
32 1:0.293346 2:0.213003 3:-0.0198731 4:0.21991 5:-0.401164 6:-0.36775 7:-0.27616 8:-0.279397 9:-0.35877 10:0.0564067 11:0.445627 12:0.230263 13:0.197661 14:0.784972 15:-0.227609 
32 1:0.291313 2:0.221608 3:0.34129 4:0.23227 5:-0.401164 6:0.47969 7:-0.27616 8:-0.279397 9:0.415303 10:0.587725 11:0.845767 12:-0.223815 13:0.691804 14:0.706089 15:-0.160406 
32 1:0.287154 2:0.645622 3:0.469552 4:0.222639 5:-0.401164 6:-0.357582 7:0.530603 8:0.520567 9:-0.176411 10:0.821363 11:0.0331494 12:0.889529 13:0.167084 14:-0.268443 15:-0.0994321 
32 1:0.281527 2:0.207006 3:0.0364714 4:0.324474 5:-0.411056 6:-0.179306 7:-0.285496 8:-0.289202 9:-0.35877 10:0.111336 11:0.641034 12:0.0755511 13:0.76941 14:0.748795 15:0.311073 
32 1:0.277029 2:-0.232575 3:-0.409987 4:0.268059 5:-0.417001 6:-0.357582 7:-0.27616 8:-0.279397 9:-0.372682 10:-0.346991 11:-0.401158 12:0.348521 13:0.351253 14:-0.288782 15:0.566595 
32 1:0.274459 2:0.112389 3:0.327573 4:0.0867291 5:-0.401164 6:0.0702255 7:-0.27616 8:-0.279397 9:0.665926 10:-0.253863 11:0.319687 12:-0.223815 13:-0.214602 14:0.779251 15:-0.160406 
32 1:0.27216 2:-0.131924 3:-0.384624 4:0.272428 5:0.382964 6:0.348601 7:-0.0778654 8:-0.0998526 9:0.100466 10:0.274702 11:0.779358 12:0.169722 13:0.684839 14:0.491668 15:-0.0486062 
32 1:0.271339 2:0.0743322 3:0.318532 4:0.105702 5:0.816264 6:0.719664 7:0.568399 8:0.564164 9:0.543161 10:0.611251 11:0.895219 12:0.644607 13:0.715285 14:0.961496 15:0.205912 
32 1:0.270664 2:0.283486 3:0.19149 4:0.259387 5:-0.427763 6:-0.357582 7:-0.294572 8:-0.297826 9:-0.35877 10:0.608454 11:0.872985 12:0.534686 13:0.851276 14:0.854847 15:0.294923 
32 1:0.269781 2:0.283485 3:-0.00331415 4:0.223375 5:-0.401164 6:-0.357582 7:-0.27616 8:-0.279397 9:-0.35877 10:0.364556 11:0.803326 12:0.336772 13:0.933802 14:0.872662 15:0.691636 
32 1:0.268011 2:0.0698015 3:0.385407 4:0.139791 5:-0.401164 6:-0.357582 7:0.613092 8:0.607554 9:-0.267418 10:0.0791698 11:-0.606753 12:0.875393 13:0.143781 14:-0.353331 15:-0.227788 
32 1:0.267969 2:0.177932 3:-0.00959859 4:0.172051 5:-0.401164 6:-0.357582 7:-0.27616 8:-0.279397 9:-0.384661 10:0.02308 11:0.468019 12:0.055003 13:0.156194 14:0.568172 15:-0.14137 
32 1:0.261282 2:-0.342003 3:-0.0550604 4:0.341533 5:-0.41945 6:-0.388128 7:0.0728133 8:0.0792712 9:-0.415331 10:-0.213233 11:0.171347 12:-0.136071 13:-0.0139278 14:0.832101 15:-0.0519669 
32 1:0.25795 2:0.0426586 3:0.00457083 4:0.576978 5:-0.111207 6:-0.402796 7:-0.325078 8:-0.328877 9:-0.383439 10:0.170395 11:0.542571 12:0.284208 13:0.359477 14:0.272442 15:-0.162046 
32 1:0.256028 2:0.506228 3:-0.0831912 4:0.170674 5:-0.401164 6:-0.357582 7:-0.27616 8:-0.279397 9:-0.365587 10:0.660623 11:0.783521 12:0.531129 13:0.773153 14:0.653055 15:0.388229 
32 1:0.253682 2:0.173687 3:0.182615 4:0.191744 5:0.359833 6:-0.0209437 7:-0.109571 8:-0.112804 9:-0.430421 10:0.263205 11:0.784858 12:-0.072979 13:0.696956 14:0.822968 15:0.110279 
32 1:0.252483 2:-0.526904 3:-0.49196 4:0.462365 5:-0.401164 6:-0.357582 7:-0.27616 8:-0.279397 9:-0.35877 10:-0.406758 11:-0.192358 12:-0.223815 13:-0.214602 14:-0.259061 15:-0.160406 
32 1:0.251548 2:0.158434 3:0.0040162 4:0.416965 5:-0.401164 6:-0.357582 7:-0.27616 8:-0.279397 9:-0.369795 10:0.56478 11:0.790429 12:0.380319 13:0.929598 14:0.883518 15:0.247096 
32 1:0.243228 2:0.278666 3:0.239931 4:0.258059 5:-0.458227 6:-0.230268 7:-0.299402 8:-0.302701 9:-0.35877 10:0.436495 11:0.65693 12:0.553678 13:0.819232 14:0.681929 15:-0.137938 
32 1:0.238848 2:-0.289231 3:-0.49196 4:0.308054 5:-0.401164 6:-0.357582 7:-0.27616 8:-0.279397 9:-0.35877 10:-0.406758 11:-0.192358 12:-0.223815 13:-0.214602 14:0.117772 15:-0.160406 
32 1:0.238044 2:0.105974 3:-0.15989 4:0.163289 5:-0.426148 6:-0.367548 7:0.258891 8:0.253178 9:-0.36991 10:-0.057066 11:0.157079 12:0.104515 13:-0.106931 14:0.734542 15:-0.237796 
32 1:0.236864 2:0.243258 3:-0.49196 4:0.140278 5:-0.401164 6:-0.357582 7:-0.27616 8:-0.279397 9:-0.35877 10:0.397294 11:0.266526 12:-0.00509502 13:0.823535 14:0.344497 15:0.382494 
32 1:0.225594 2:0.253684 3:0.0194547 4:0.221627 5:-0.401164 6:-0.357582 7:-0.27616 8:-0.279397 9:-0.35877 10:0.251874 11:0.884344 12:0.589943 13:0.891112 14:0.875854 15:0.389828 
32 1:0.223265 2:-0.0763874 3:-0.49196 4:-0.417497 5:0.229337 6:-0.357582 7:-0.27616 8:-0.279397 9:-0.384371 10:0.0725504 11:0.516906 12:-0.299297 13:0.114094 14:-0.346445 15:0.121366 
32 1:0.222699 2:-0.274539 3:0.201394 4:0.502764 5:-0.415346 6:-0.357582 7:0.794833 8:0.794741 9:-0.267785 10:0.0187165 11:0.041676 12:0.114292 13:0.191876 14:-0.0923666 15:0.724117 
32 1:0.222238 2:0.251029 3:0.146694 4:0.239235 5:0.0361459 6:-0.0765144 7:-0.237601 8:-0.237612 9:-0.35877 10:0.484927 11:0.572474 12:0.461372 13:0.834217 14:0.837137 15:0.244549 
32 1:0.2159 2:-0.362061 3:-0.437465 4:0.165908 5:-0.401164 6:-0.357582 7:-0.209056 8:-0.215041 9:-0.409578 10:-0.0902577 11:-0.211611 12:0.178625 13:0.381595 14:-0.256577 15:0.502552 
32 1:0.215285 2:0.11118 3:0.0975341 4:0.122203 5:-0.457187 6:-0.357582 7:-0.101036 8:-0.108656 9:-0.171885 10:0.159551 11:0.531569 12:-0.0528108 13:0.370901 14:0.757269 15:-0.243998 
32 1:0.215065 2:0.061405 3:0.0311077 4:0.221613 5:-0.474941 6:-0.185133 7:0.331547 8:0.320378 9:-0.0723464 10:0.280296 11:0.749524 12:0.459732 13:0.240627 14:0.680162 15:-0.193717 
32 1:0.210449 2:-0.168595 3:0.0578337 4:0.210256 5:-0.418467 6:-0.357582 7:-0.22578 8:-0.227778 9:-0.371906 10:0.0107687 11:-0.0916236 12:0.300938 13:0.338544 14:-0.376194 15:-0.148291 
32 1:0.210391 2:0.126682 3:-0.525456 4:0.131974 5:0.217368 6:-0.357582 7:-0.27616 8:-0.279397 9:-0.35877 10:0.144822 11:-0.272334 12:0.452839 13:0.401829 14:-0.242583 15:0.314764 
32 1:0.209676 2:0.0676425 3:0.0996983 4:0.101649 5:-0.401164 6:-0.357582 7:-0.27616 8:-0.279397 9:-0.35877 10:0.126308 11:-0.0895125 12:0.477429 13:0.660005 14:0.799455 15:-0.331627 
32 1:0.208788 2:0.0923388 3:-0.49196 4:-0.366 5:0.152665 6:-0.357582 7:-0.308153 8:-0.310902 9:-0.374943 10:0.454857 11:0.364437 12:-0.116418 13:0.610798 14:-0.0495264 15:0.0869998 
32 1:0.207079 2:-0.176005 3:-0.501891 4:0.458257 5:-0.439136 6:-0.357582 7:-0.27616 8:-0.279397 9:-0.35877 10:-0.221688 11:-0.394695 12:0.356426 13:0.298631 14:-0.319829 15:0.551082 
32 1:0.206323 2:0.148938 3:0.0190348 4:0.418128 5:-0.4247 6:-0.357582 7:-0.27616 8:-0.279397 9:-0.35877 10:0.400346 11:0.680081 12:0.431961 13:0.594252 14:0.608084 15:0.0621567 
32 1:0.204941 2:-0.13639 3:0.252997 4:0.311192 5:-0.458951 6:-0.357582 7:-0.153566 8:-0.154707 9:-0.369641 10:-0.0775692 11:-0.0218282 12:0.361933 13:0.225489 14:-0.351721 15:-0.0313556 
32 1:0.203444 2:-0.198468 3:-0.0672442 4:0.19349 5:-0.401164 6:-0.357582 7:-0.27616 8:-0.279397 9:-0.401713 10:0.678348 11:0.735497 12:0.381782 13:0.750043 14:0.507112 15:0.113843 
32 1:0.200141 2:0.222269 3:0.163508 4:-0.366 5:-0.401164 6:-0.357582 7:-0.27616 8:-0.279397 9:-0.35877 10:-0.161009 11:-0.192358 12:-0.223815 13:0.224561 14:0.275232 15:-0.19321 
32 1:0.197924 2:0.0373085 3:-0.49196 4:0.10302 5:-0.401164 6:-0.357582 7:-0.27616 8:-0.279397 9:-0.35877 10:0.0882937 11:0.522855 12:0.0752041 13:0.318085 14:0.423449 15:-0.350401 
32 1:0.194908 2:0.169959 3:-0.165892 4:0.12081 5:-0.426458 6:-0.373673 7:-0.156727 8:-0.159439 9:-0.35877 10:0.26228 11:0.487946 12:0.686629 13:0.280623 14:0.52501 15:0.0607064 
32 1:0.193233 2:0.13237 3:-0.428254 4:0.156622 5:-0.401164 6:-0.357582 7:-0.0440136 8:-0.0436599 9:-0.193662 10:0.18981 11:0.492247 12:0.326056 13:0.789495 14:0.687053 15:0.0404244 
32 1:0.191159 2:0.151472 3:-0.0129509 4:0.220387 5:-0.34964 6:-0.357582 7:-0.0570215 8:-0.0601637 9:-0.383781 10:0.293814 11:0.662627 12:0.24874 13:0.766236 14:0.769913 15:-0.0889695 
32 1:0.189546 2:0.373721 3:-0.510796 4:0.218961 5:-0.401164 6:-0.357582 7:-0.27616 8:-0.279397 9:-0.35877 10:0.203716 11:0.668079 12:0.540768 13:0.540223 14:0.678147 15:0.501669 
32 1:0.184606 2:-0.272294 3:-0.49196 4:0.197567 5:-0.401164 6:-0.357582 7:-0.27616 8:-0.279397 9:-0.35877 10:-0.406758 11:-0.192358 12:-0.223815 13:-0.214602 14:0.33351 15:-0.160406 
32 1:0.18398 2:-0.0412923 3:0.00881461 4:0.122098 5:-0.424977 6:-0.367942 7:-0.251923 8:-0.243467 9:-0.35877 10:0.0554411 11:0.352738 12:0.205831 13:0.281848 14:0.644082 15:-0.31998 
32 1:0.183598 2:-0.547333 3:-0.257226 4:0.356977 5:-0.419344 6:-0.357582 7:0.0338902 8:0.0324802 9:-0.211111 10:-0.371736 11:-0.294485 12:0.0626129 13:0.283725 14:-0.280309 15:-0.0458851 
32 1:0.183227 2:0.177448 3:-0.0562105 4:0.146843 5:-0.401164 6:-0.357582 7:-0.27616 8:-0.279397 9:-0.365274 10:0.371121 11:0.510984 12:0.0371807 13:0.732976 14:0.457766 15:-0.102866 
32 1:0.178422 2:0.132415 3:0.207073 4:0.130969 5:-0.370482 6:-0.357582 7:-0.313112 8:-0.315077 9:-0.387634 10:0.513971 11:0.773919 12:0.436494 13:0.891512 14:0.748045 15:-0.104594 
32 1:0.177936 2:0.52158 3:-0.49196 4:0.188538 5:-0.401164 6:-0.357582 7:-0.27616 8:-0.279397 9:-0.35877 10:0.831033 11:0.753465 12:0.0976522 13:0.875332 14:0.226739 15:0.139398 
32 1:0.177537 2:-0.424808 3:0.45446 4:-0.366 5:-0.401164 6:-0.357582 7:-0.27616 8:-0.279397 9:-0.35877 10:-0.420664 11:-0.205708 12:-0.23755 13:-0.214602 14:-0.350869 15:-0.17845 
32 1:0.176711 2:0.017847 3:-0.49196 4:0.253683 5:-0.444911 6:-0.357582 7:-0.27616 8:-0.279397 9:-0.35877 10:-0.0883145 11:0.548605 12:0.181696 13:-0.0836137 14:0.565557 15:0.0972392 
32 1:0.174171 2:0.101627 3:-0.277499 4:0.370743 5:-0.401164 6:-0.357582 7:-0.27616 8:-0.279397 9:-0.374429 10:0.205648 11:0.616168 12:0.315659 13:0.391826 14:0.316055 15:0.203923 
32 1:0.171984 2:0.151149 3:0.0985778 4:0.247072 5:-0.217744 6:-0.357582 7:-0.319783 8:-0.322907 9:-0.400463 10:0.552357 11:0.0449592 12:0.737392 13:0.186095 14:-0.32218 15:0.0906406 
32 1:0.171868 2:0.16498 3:-0.180505 4:0.334918 5:-0.401164 6:-0.397267 7:-0.27616 8:-0.279397 9:-0.35877 10:0.388405 11:0.679041 12:0.332098 13:0.508268 14:0.287194 15:0.335343 
32 1:0.169132 2:0.00936088 3:-0.49196 4:0.251964 5:-0.401164 6:-0.357582 7:-0.27616 8:-0.279397 9:-0.35877 10:0.111646 11:-0.13811 12:0.0953216 13:0.738199 14:0.59399 15:-0.367704 
32 1:0.169116 2:0.106994 3:-0.299878 4:0.292057 5:-0.417489 6:-0.357582 7:0.107291 8:0.104589 9:-0.394981 10:-0.0844621 11:0.184622 12:0.0954995 13:-0.173626 14:0.793549 15:-0.0417785 
32 1:0.168286 2:0.341298 3:-0.273067 4:0.172339 5:-0.401164 6:-0.357582 7:-0.27616 8:-0.279397 9:-0.35877 10:0.584982 11:0.789911 12:0.371847 13:0.818041 14:0.581574 15:0.121959 
32 1:0.166343 2:0.0338187 3:-0.51147 4:0.234572 5:-0.401164 6:-0.357582 7:-0.27616 8:-0.279397 9:-0.35877 10:0.471155 11:0.255111 12:-0.240994 13:0.546223 14:0.266152 15:0.151996 
32 1:0.163968 2:-0.118207 3:-0.49196 4:0.159176 5:-0.401164 6:-0.357582 7:-0.27616 8:-0.279397 9:-0.35877 10:-0.406758 11:-0.192358 12:-0.223815 13:-0.214602 14:0.328777 15:-0.160406 
32 1:0.163756 2:0.187843 3:-0.0880565 4:0.168996 5:-0.401164 6:-0.357582 7:-0.27616 8:-0.279397 9:-0.385157 10:-0.128779 11:0.336914 12:0.0728518 13:0.0347362 14:0.893453 15:-0.267619 
32 1:0.163478 2:0.136809 3:0.0923928 4:0.153732 5:-0.401164 6:-0.357582 7:-0.27616 8:-0.279397 9:-0.35877 10:0.291318 11:0.834227 12:0.240534 13:0.911747 14:0.920844 15:0.0812154 
32 1:0.163427 2:0.28997 3:-0.49196 4:0.191366 5:-0.401164 6:-0.357582 7:-0.27616 8:-0.279397 9:-0.35877 10:0.533348 11:0.351382 12:-0.108448 13:0.645527 14:0.186749 15:-0.095258 
32 1:0.163154 2:-0.182565 3:-0.465364 4:0.262023 5:-0.401164 6:-0.357582 7:-0.27616 8:-0.279397 9:-0.379309 10:-0.126746 11:0.937625 12:0.480163 13:0.839834 14:0.647544 15:-0.445665 
32 1:0.163117 2:0.0822373 3:-0.49196 4:0.103947 5:-0.401164 6:-0.357582 7:-0.27616 8:-0.279397 9:-0.35877 10:0.141329 11:0.638005 12:0.0994758 13:0.618862 14:0.32408 15:0.494482 
32 1:0.162392 2:0.187626 3:-0.308265 4:0.476144 5:-0.054108 6:-0.300672 7:-0.27616 8:-0.279397 9:-0.35877 10:0.450238 11:0.799361 12:0.451921 13:0.528002 14:0.326077 15:0.237486 
32 1:0.161063 2:-0.236053 3:-0.49196 4:0.343087 5:-0.401164 6:-0.357582 7:-0.27616 8:-0.279397 9:-0.35877 10:0.457492 11:0.659332 12:-0.0264111 13:0.890226 14:0.570708 15:0.0834952 
32 1:0.15755 2:-0.484843 3:0.423732 4:-0.366 5:-0.401164 6:-0.357582 7:-0.27616 8:-0.279397 9:-0.35877 10:0.0785945 11:-0.0493466 12:0.187285 13:-0.1864 14:-0.432927 15:-0.196025 
32 1:0.151257 2:0.252977 3:0.0645422 4:0.182671 5:0.635238 6:0.909022 7:0.602285 8:0.60559 9:0.594808 10:0.77908 11:0.796727 12:0.8947 13:0.820784 14:0.924424 15:0.569791 
32 1:0.149252 2:-0.0892685 3:-0.49196 4:0.240669 5:-0.401164 6:-0.357582 7:-0.27616 8:-0.279397 9:-0.35877 10:-0.406758 11:-0.192358 12:-0.223815 13:-0.214602 14:-0.311237 15:-0.160406 
32 1:0.147903 2:0.0328876 3:0.0178217 4:0.127494 5:-0.401164 6:-0.357582 7:0.183068 8:0.184253 9:0.335299 10:0.105136 11:-0.00433861 12:0.186802 13:0.765102 14:0.893937 15:-0.155521 
32 1:0.147538 2:-0.488278 3:0.394079 4:-0.366 5:-0.401164 6:-0.357582 7:-0.27616 8:-0.279397 9:-0.35877 10:-0.438345 11:-0.30746 12:-0.255653 13:-0.214602 14:-0.235478 15:-0.170428 
32 1:0.146696 2:0.14354 3:-0.308554 4:0.215135 5:-0.401164 6:-0.357582 7:0.0583564 8:0.0416 9:-0.151125 10:0.566991 11:0.747132 12:-0.137761 13:0.709066 14:0.782721 15:-0.177826 
32 1:0.146558 2:-0.247191 3:-0.262533 4:0.370794 5:0.131129 6:-0.224586 7:-0.27616 8:-0.279397 9:-0.35877 10:-0.214056 11:0.182396 12:0.145111 13:0.621749 14:-0.311237 15:0.306036 
32 1:0.14592 2:-7.29812e-05 3:-0.011264 4:0.111278 5:-0.401164 6:-0.357582 7:-0.117087 8:-0.125736 9:-0.35877 10:0.0829646 11:0.666033 12:0.641196 13:0.684653 14:0.298867 15:-0.461462 
32 1:0.144903 2:-0.0675029 3:-0.49196 4:0.176761 5:-0.401164 6:-0.357582 7:-0.27616 8:-0.279397 9:-0.35877 10:0.221204 11:0.429234 12:0.550234 13:0.866108 14:0.92498 15:-0.0763356 
32 1:0.144139 2:-0.434821 3:0.131817 4:-0.366 5:-0.401164 6:-0.357582 7:-0.27616 8:-0.279397 9:-0.35877 10:-0.406758 11:-0.192358 12:-0.223815 13:-0.214602 14:-0.311237 15:-0.160406 
32 1:0.141297 2:0.217877 3:0.0968822 4:-0.0362843 5:-0.401164 6:-0.357582 7:-0.27616 8:-0.279397 9:-0.352737 10:0.271447 11:0.922678 12:0.579088 13:0.374728 14:0.785116 15:-0.273464 
32 1:0.14105 2:0.181205 3:0.030564 4:-0.0205633 5:-0.401164 6:-0.357582 7:-0.27616 8:-0.279397 9:-0.35877 10:0.267253 11:-0.312922 12:0.605578 13:0.238356 14:-0.326182 15:0.656817 
32 1:0.138623 2:-0.0437741 3:-0.260061 4:0.234161 5:-0.420118 6:-0.357582 7:-0.304115 8:-0.308721 9:-0.35877 10:0.127966 11:0.474769 12:-0.0951883 13:0.789729 14:0.765007 15:0.343547 
32 1:0.137742 2:0.176802 3:0.133359 4:0.275447 5:0.0541538 6:0.94797 7:0.611943 8:0.608206 9:0.608162 10:0.665192 11:0.735208 12:0.928713 13:0.679747 14:0.964051 15:0.435961 
32 1:0.136235 2:-0.187519 3:-0.507895 4:0.112402 5:-0.401164 6:-0.357582 7:-0.27616 8:-0.279397 9:-0.35877 10:-0.354006 11:-0.30139 12:-0.0510198 13:0.240972 14:-0.0845993 15:0.176044 
32 1:0.136103 2:0.118313 3:-0.185492 4:0.130541 5:-0.42075 6:-0.357582 7:-0.323303 8:-0.326526 9:-0.409303 10:0.432523 11:-0.253115 12:0.574588 13:0.394556 14:-0.303073 15:0.491256 
32 1:0.136054 2:-0.435003 3:-0.49196 4:-0.38159 5:-0.401164 6:0.233672 7:-0.27616 8:-0.279397 9:-0.35877 10:-0.490857 11:-0.0841098 12:0.466381 13:-0.40596 14:-0.307112 15:0.144898 
32 1:0.136032 2:-0.0855534 3:-0.49196 4:0.255702 5:-0.401164 6:-0.357582 7:-0.27616 8:-0.279397 9:-0.35877 10:-0.406758 11:-0.192358 12:-0.223815 13:-0.214602 14:0.33661 15:-0.160406 
32 1:0.135536 2:0.390531 3:-0.362977 4:0.17404 5:-0.40886 6:-0.357582 7:-0.00977035 8:-0.0119674 9:-0.410561 10:0.420961 11:-0.0537561 12:0.565395 13:0.678104 14:-0.209777 15:-0.0618921 
32 1:0.134597 2:-0.137794 3:0.20951 4:0.035026 5:-0.448711 6:-0.357582 7:0.853258 8:0.842426 9:0.00909234 10:0.095422 11:0.23079 12:0.173465 13:0.308471 14:-0.42977 15:0.36412 
32 1:0.134178 2:-0.517353 3:0.20712 4:-0.00463701 5:-0.459642 6:0.0485882 7:0.136666 8:0.121128 9:-0.35877 10:-0.51564 11:-0.63838 12:0.0475734 13:-0.37079 14:0.0300993 15:0.200811 
32 1:0.133216 2:0.597837 3:-0.165811 4:0.181837 5:-0.401164 6:-0.357582 7:-0.27616 8:-0.279397 9:-0.36543 10:0.923712 11:0.882935 12:0.405145 13:0.95079 14:0.353529 15:0.476268 
32 1:0.130263 2:0.518443 3:-0.439631 4:0.0933761 5:-0.401164 6:-0.327961 7:-0.27616 8:-0.279397 9:-0.35877 10:0.575995 11:0.840463 12:0.447208 13:0.8204 14:0.89078 15:0.602424 
32 1:0.129551 2:-0.213703 3:-0.170634 4:0.254771 5:-0.244337 6:-0.388283 7:0.3917 8:0.38056 9:-0.399728 10:-0.0634978 11:0.556653 12:0.372071 13:0.936015 14:0.914908 15:0.254526 
32 1:0.12819 2:-0.527499 3:0.314648 4:-0.366 5:-0.401164 6:-0.357582 7:-0.27616 8:-0.279397 9:-0.35877 10:-0.40114 11:0.0205266 12:-0.282999 13:-0.246694 14:-0.311237 15:-0.170507 
32 1:0.127622 2:-0.0555081 3:-0.457063 4:0.178987 5:-0.401164 6:-0.357582 7:0.0118413 8:-0.00292903 9:-0.35877 10:0.771801 11:0.660759 12:0.495197 13:0.827702 14:0.524243 15:0.103188 
32 1:0.126749 2:0.0569957 3:-0.160114 4:0.114633 5:0.17974 6:-0.357582 7:-0.274174 8:-0.281668 9:-0.374324 10:0.0544186 11:0.688718 12:0.0942878 13:0.705606 14:0.799784 15:-0.131265 
32 1:0.125504 2:0.0313469 3:-0.49196 4:0.247692 5:-0.401164 6:-0.357582 7:-0.27616 8:-0.279397 9:-0.35877 10:-0.0369988 11:0.488316 12:-0.0162857 13:0.713223 14:0.750061 15:-0.0173812 
32 1:0.125145 2:-0.0933484 3:0.0228025 4:0.132833 5:-0.401164 6:-0.357582 7:-0.27616 8:-0.279397 9:-0.402535 10:0.794545 11:0.969363 12:0.336773 13:0.91984 14:0.866912 15:0.159234 
32 1:0.123168 2:-0.242906 3:-0.0832011 4:0.260152 5:-0.455145 6:0.0623101 7:0.288918 8:0.282601 9:-0.362975 10:0.268338 11:0.736844 12:0.20203 13:0.882916 14:0.83336 15:-0.137648 
11.06332954627723 1:0.123106 2:0.195599 3:0.109505 4:0.105716 5:0.817666 6:0.820752 7:0.67227 8:0.662792 9:0.638051 10:0.84766 11:0.964678 12:0.958162 13:0.891695 14:0.949467 15:0.359362 
32 1:0.120015 2:-0.446543 3:-0.49196 4:0.0816622 5:-0.401164 6:-0.357582 7:-0.27616 8:-0.279397 9:-0.35877 10:-0.406758 11:-0.192358 12:-0.223815 13:-0.214602 14:-0.240647 15:-0.160406 
32 1:0.118571 2:-0.244818 3:0.271453 4:-0.396117 5:-0.401164 6:-0.357582 7:-0.297264 8:-0.300245 9:-0.35877 10:-0.448215 11:-0.270278 12:-0.223815 13:-0.253348 14:-0.459748 15:-0.173109 
32 1:0.118273 2:-0.120914 3:-0.351452 4:0.180774 5:-0.401164 6:-0.357582 7:-0.27616 8:-0.279397 9:-0.372239 10:-0.20402 11:-0.281528 12:0.182774 13:0.239489 14:-0.269243 15:0.576136 
32 1:0.117955 2:0.142297 3:-0.393534 4:0.20106 5:-0.442812 6:-0.357582 7:0.196943 8:0.184726 9:-0.215354 10:0.319412 11:0.726446 12:0.513936 13:-0.0857297 14:0.810683 15:-0.295911 
32 1:0.117718 2:0.107498 3:0.326825 4:-0.133698 5:-0.401164 6:-0.357582 7:-0.27616 8:-0.279397 9:0.629808 10:0.692332 11:0.873747 12:-0.223815 13:0.916019 14:0.789649 15:-0.160406 
32 1:0.116517 2:-0.290171 3:-0.496441 4:0.176983 5:-0.417371 6:-0.357582 7:-0.291657 8:-0.293817 9:-0.35877 10:-0.322486 11:-0.30455 12:0.31081 13:0.324044 14:-0.341928 15:0.708559 
32 1:0.116395 2:-0.0218746 3:-0.0327827 4:0.0681202 5:-0.401164 6:-0.357582 7:-0.0835162 8:-0.0897023 9:-0.35877 10:0.13629 11:-0.132092 12:0.657057 13:0.552925 14:0.455796 15:-0.428789 
32 1:0.114851 2:-0.187639 3:-0.48669 4:0.0374214 5:0.344107 6:-0.143023 7:-0.264496 8:-0.269183 9:-0.400072 10:-0.504314 11:-0.147733 12:-0.234355 13:-0.671209 14:-0.106936 15:0.195081 
32 1:0.114771 2:0.0198991 3:-0.49196 4:0.145308 5:-0.401164 6:-0.357582 7:-0.27616 8:-0.279397 9:-0.35877 10:-0.116124 11:0.0662154 12:0.232789 13:0.0857268 14:0.603028 15:-0.166828 
32 1:0.113514 2:-0.0395523 3:-0.49196 4:-0.366 5:0.16363 6:-0.357582 7:-0.299088 8:-0.301612 9:-0.3857 10:0.00662051 11:0.0577091 12:-0.318863 13:0.453326 14:0.596392 15:-0.00392589 
32 1:0.11346 2:0.0434735 3:-0.252759 4:0.324743 5:-0.454608 6:-0.236594 7:-0.312393 8:-0.315909 9:-0.35877 10:0.296913 11:0.659133 12:0.398217 13:0.539057 14:0.297041 15:-0.0892084 
32 1:0.110532 2:0.0517766 3:-0.179991 4:0.0655278 5:-0.401164 6:-0.357582 7:-0.27616 8:-0.279397 9:-0.368439 10:-0.0692912 11:0.774048 12:0.594821 13:-0.114898 14:0.872025 15:-0.219766 
32 1:0.108379 2:0.194694 3:-0.339854 4:0.396714 5:-0.437781 6:-0.382347 7:-0.27616 8:-0.279397 9:-0.35877 10:0.572703 11:0.322292 12:0.031358 13:0.783191 14:0.65051 15:0.280751 
32 1:0.108196 2:0.15245 3:-0.49196 4:0.212913 5:-0.429008 6:-0.357582 7:-0.27616 8:-0.279397 9:-0.35877 10:0.221302 11:0.629224 12:0.258776 13:0.817381 14:0.582239 15:-0.0720153 
32 1:0.108 2:-0.108135 3:-0.49196 4:0.243285 5:-0.401164 6:-0.370635 7:0.632528 8:0.627556 9:0.142114 10:-0.344175 11:-0.122048 12:0.123528 13:-0.458895 14:0.0355225 15:-0.126391 
32 1:0.106672 2:0.418595 3:-0.49196 4:0.392652 5:-0.504108 6:-0.357582 7:-0.27616 8:-0.279397 9:-0.35877 10:0.682193 11:0.467727 12:0.135736 13:0.921448 14:0.747127 15:-0.0403997 
32 1:0.10655 2:-0.258078 3:-0.103741 4:0.115864 5:-0.447939 6:-0.357582 7:-0.319121 8:-0.319568 9:-0.489332 10:0.295893 11:0.9654 12:0.111724 13:0.848663 14:0.864481 15:0.186634 
32 1:0.106 2:0.343912 3:-0.214315 4:0.129205 5:-0.401164 6:-0.357582 7:-0.282153 8:-0.285193 9:-0.35877 10:0.693512 11:0.794921 12:0.77349 13:0.619374 14:0.621508 15:0.23401 
32 1:0.105899 2:-0.24575 3:0.0325271 4:0.0929586 5:-0.425725 6:0.0873652 7:0.0696376 8:0.0644615 9:-0.35877 10:0.169437 11:0.890099 12:0.315692 13:0.827556 14:0.862763 15:-0.0856527 
32 1:0.104988 2:-0.339595 3:-0.53718 4:0.116892 5:-0.408491 6:-0.357582 7:-0.300018 8:-0.304366 9:-0.35877 10:-0.250306 11:-0.14081 12:-0.0507756 13:0.23515 14:-0.30515 15:0.380537 
32 1:0.103807 2:-0.355195 3:-0.509742 4:0.183774 5:-0.401164 6:-0.357582 7:-0.248672 8:-0.254326 9:-0.383983 10:-0.341213 11:-0.25005 12:-0.223815 13:0.368076 14:-0.310166 15:0.264718 
32 1:0.103632 2:0.201311 3:-0.116747 4:-0.0440951 5:-0.465111 6:-0.357582 7:-0.16425 8:-0.162485 9:-0.372818 10:0.484238 11:0.912608 12:0.537502 13:0.329651 14:0.738122 15:-0.313384 
32 1:0.10221 2:-0.548735 3:-0.49196 4:0.437476 5:-0.401164 6:-0.357582 7:-0.27616 8:-0.279397 9:-0.35877 10:-0.517781 11:-0.257073 12:-0.215371 13:-0.390832 14:-0.453779 15:0.107833 
32 1:0.101533 2:0.159702 3:-0.0284681 4:0.144349 5:-0.401164 6:-0.357582 7:-0.27616 8:-0.279397 9:-0.35877 10:0.37935 11:0.735084 12:-0.223815 13:0.65904 14:0.556045 15:0.142154 
32 1:0.100669 2:0.16569 3:-0.49196 4:0.110021 5:-0.401164 6:-0.357582 7:-0.27616 8:-0.279397 9:-0.35877 10:0.653331 11:0.800136 12:0.0510758 13:0.739688 14:0.423059 15:-0.187339 
32 1:0.100597 2:-0.332389 3:-0.49196 4:-0.366 5:0.131393 6:-0.36389 7:-0.31594 8:-0.319506 9:-0.35877 10:-0.44309 11:-0.240763 12:-0.237584 13:-0.214602 14:-0.311237 15:-0.160406 
32 1:0.100072 2:0.654301 3:-0.200458 4:0.129674 5:-0.401164 6:-0.367982 7:-0.27616 8:-0.279397 9:-0.35877 10:0.904119 11:0.937254 12:0.468123 13:0.927254 14:0.921315 15:0.82867 
32 1:0.0989058 2:0.0983028 3:-0.0298556 4:0.396598 5:-0.401164 6:-0.357582 7:-0.00393458 8:-0.0096438 9:-0.35877 10:0.562059 11:0.589983 12:0.516544 13:0.809567 14:0.652646 15:0.103499 
32 1:0.098699 2:0.0703484 3:-0.182258 4:0.156021 5:-0.401164 6:-0.357582 7:-0.27616 8:-0.279397 9:-0.36946 10:0.306971 11:0.755087 12:0.39803 13:0.674405 14:0.56985 15:-0.0753084 
32 1:0.0950603 2:0.416977 3:-0.560619 4:0.23701 5:-0.401164 6:-0.357582 7:-0.27616 8:-0.279397 9:-0.371636 10:0.777825 11:0.832377 12:-0.223815 13:0.75497 14:0.794744 15:0.604713 
32 1:0.0940733 2:-0.210232 3:-0.49196 4:0.230494 5:-0.401164 6:-0.357582 7:-0.27616 8:-0.279397 9:-0.35877 10:-0.244529 11:0.84452 12:0.188906 13:0.775654 14:0.617322 15:-0.157031 
32 1:0.0936357 2:0.508346 3:-0.529945 4:0.0387187 5:-0.401164 6:-0.357582 7:-0.27616 8:-0.279397 9:-0.35877 10:0.721032 11:0.818409 12:0.746098 13:0.76889 14:0.570347 15:0.236603 
32 1:0.0898424 2:-0.315783 3:-0.378049 4:0.215733 5:-0.401164 6:-0.357582 7:-0.122794 8:-0.109181 9:-0.342947 10:-0.289776 11:0.797568 12:-0.223815 13:0.725506 14:0.417721 15:-0.396365 
32 1:0.089057 2:-0.273108 3:0.666261 4:0.397232 5:-0.431157 6:-0.0277284 7:-0.350602 8:-0.353614 9:-0.378727 10:-0.129481 11:-0.226626 12:-0.223815 13:0.421496 14:0.00340061 15:0.124647 
32 1:0.0882542 2:-0.246465 3:-0.0948323 4:-0.0778986 5:0.204287 6:0.618569 7:-0.223612 8:-0.234534 9:-0.180578 10:-0.661184 11:-0.438715 12:0.109461 13:-0.501424 14:-0.313723 15:-0.413539 
32 1:0.0880518 2:0.278467 3:-0.199016 4:0.0834744 5:-0.401164 6:-0.3924 7:-0.27616 8:-0.279397 9:-0.35877 10:0.716413 11:0.826696 12:0.425782 13:0.872437 14:0.658786 15:-0.107508 
32 1:0.0871854 2:0.112473 3:-0.18313 4:0.0256789 5:0.01443 6:-0.357582 7:-0.0489397 8:-0.0402691 9:-0.38155 10:0.180895 11:0.643953 12:0.503049 13:0.0115252 14:0.681795 15:-0.231659 
32 1:0.0868258 2:-0.259071 3:-0.122699 4:0.0869021 5:-0.419717 6:-0.406515 7:0.277419 8:0.276815 9:-0.35877 10:0.435456 11:0.6352 12:0.448777 13:0.771727 14:0.466374 15:-0.125718 
32 1:0.0865317 2:-0.177957 3:-0.544015 4:0.0675454 5:-0.401164 6:-0.373538 7:-0.27616 8:-0.279397 9:-0.35877 10:-0.637088 11:-0.466158 12:-0.425701 13:-0.357429 14:0.656443 15:-0.517438 
32 1:0.084803 2:-0.0540474 3:-0.49196 4:-0.387951 5:0.112505 6:-0.357582 7:-0.27616 8:-0.279397 9:-0.35877 10:0.0184279 11:0.131495 12:-0.223815 13:-0.214602 14:-0.378564 15:-0.160406 
32 1:0.0836803 2:0.0470447 3:-0.309262 4:0.154132 5:-0.437586 6:-0.357582 7:-0.171058 8:-0.179236 9:-0.367935 10:0.00677354 11:0.588646 12:-0.0380074 13:0.055944 14:0.740635 15:-0.150021 
32 1:0.0835715 2:0.379783 3:-0.49196 4:0.0942946 5:-0.401164 6:-0.357582 7:-0.27616 8:-0.279397 9:-0.35877 10:0.801941 11:0.83465 12:-0.298884 13:0.821589 14:0.457803 15:0.58375 
32 1:0.0834801 2:0.109542 3:0.055134 4:0.0693269 5:-0.424392 6:-0.357582 7:-0.192513 8:-0.201635 9:-0.35877 10:0.135977 11:0.756068 12:-0.0299291 13:0.752165 14:0.71101 15:-0.094889 
32 1:0.0825315 2:0.0604403 3:-0.166918 4:0.0300309 5:-0.408915 6:-0.367553 7:-0.11599 8:-0.108422 9:-0.35877 10:0.00383133 11:0.349597 12:0.183865 13:0.149765 14:0.422228 15:-0.326198 
32 1:0.0811386 2:0.487531 3:-0.415926 4:0.0752966 5:-0.416799 6:0.321781 7:-0.27616 8:-0.279397 9:-0.370298 10:0.434214 11:0.411985 12:-0.0299775 13:0.796692 14:0.837263 15:0.460425 
32 1:0.0796967 2:-0.338922 3:-0.49196 4:0.200359 5:-0.401164 6:-0.357582 7:-0.27616 8:-0.279397 9:-0.35877 10:-0.244407 11:0.717621 12:-0.31276 13:0.692071 14:0.642281 15:-0.38339 
32 1:0.0778226 2:0.515374 3:-0.510374 4:0.19121 5:-0.401164 6:-0.357582 7:-0.281934 8:-0.285017 9:-0.35877 10:0.29929 11:0.708306 12:0.215348 13:0.730999 14:0.861907 15:0.438383 
32 1:0.0742923 2:-0.373023 3:-0.463066 4:-0.00303478 5:-0.401164 6:-0.373762 7:-0.300855 8:-0.302897 9:-0.453327 10:-0.705446 11:-0.404378 12:-0.453397 13:-0.480511 14:0.642963 15:-0.243201 
32 1:0.0734922 2:0.155914 3:0.100715 4:0.227722 5:-0.435844 6:-0.208097 7:-0.230361 8:-0.233816 9:-0.35877 10:0.576027 11:-0.0221919 12:0.720759 13:0.128971 14:-0.37932 15:0.0471942 
32 1:0.0718082 2:-0.146396 3:-0.504876 4:-0.380409 5:-0.17326 6:0.22205 7:-0.130662 8:-0.135152 9:-0.193368 10:0.109885 11:0.131621 12:-0.223815 13:0.460394 14:0.499689 15:-0.0406805 
32 1:0.0714508 2:0.173023 3:-0.520424 4:0.267572 5:-0.401164 6:-0.357582 7:-0.286682 8:-0.289874 9:-0.35877 10:0.449808 11:0.599857 12:0.495835 13:0.51113 14:0.322352 15:0.199449 
32 1:0.0677987 2:-0.435684 3:-0.514204 4:0.275972 5:-0.401164 6:-0.406535 7:-0.378279 8:-0.381761 9:-0.456412 10:-0.583791 11:-0.39665 12:-0.324671 13:-0.350594 14:0.769926 15:-0.35093 
32 1:0.0664817 2:0.221136 3:-0.292379 4:0.0322477 5:-0.417853 6:-0.357582 7:-0.27616 8:-0.279397 9:-0.35877 10:0.374354 11:0.573648 12:0.727679 13:-0.0113126 14:0.563995 15:-0.220269 
32 1:0.0660998 2:0.113737 3:-0.189758 4:0.286414 5:-0.525001 6:-0.231281 7:-0.27616 8:-0.279397 9:-0.35877 10:0.305311 11:0.77736 12:0.666827 13:0.279388 14:0.538788 15:-0.302865 
32 1:0.0660072 2:-0.212707 3:0.207795 4:-0.366 5:-0.401164 6:-0.357582 7:-0.27616 8:-0.279397 9:-0.35877 10:-0.417133 11:-0.192358 12:-0.223815 13:-0.229395 14:0.103956 15:-0.195937 
32 1:0.0658136 2:0.0729007 3:-0.140947 4:-0.0138208 5:-0.401164 6:-0.33935 7:-0.27616 8:-0.279397 9:-0.35877 10:0.148683 11:0.790744 12:0.0886851 13:0.30743 14:0.773259 15:0.129938 
32 1:0.065527 2:-0.175343 3:0.0568371 4:0.0225837 5:-0.401164 6:-0.357582 7:-0.241866 8:-0.245625 9:-0.378636 10:0.00971322 11:0.741886 12:0.268732 13:0.688949 14:0.457414 15:-0.0921302 
32 1:0.0647556 2:0.183376 3:0.0166846 4:0.23605 5:-0.43924 6:-0.357582 7:-0.27616 8:-0.279397 9:-0.35877 10:0.417726 11:0.871055 12:0.464294 13:0.91996 14:0.789298 15:0.508387 
32 1:0.0636502 2:-0.307385 3:-0.49196 4:0.0549026 5:-0.401164 6:-0.357582 7:-0.27616 8:-0.279397 9:-0.35877 10:-0.253143 11:-0.118774 12:-0.0873075 13:0.229239 14:-0.300108 15:0.324554 
32 1:0.0634532 2:-0.0810083 3:0.0248302 4:0.0944835 5:-0.401164 6:-0.357582 7:-0.27616 8:-0.279397 9:-0.369761 10:-0.0640908 11:0.107394 12:0.619186 13:0.155824 14:-0.30573 15:0.103529 
32 1:0.0603783 2:0.0891019 3:-0.388332 4:0.243172 5:-0.215276 6:-0.435695 7:-0.286723 8:-0.290163 9:-0.35877 10:0.338187 11:0.457769 12:0.532789 13:0.431587 14:0.257953 15:0.0117537 
32 1:0.0601527 2:0.460558 3:-0.49196 4:0.00519184 5:-0.401164 6:-0.357582 7:-0.27616 8:-0.279397 9:-0.35877 10:0.817329 11:0.655435 12:-0.0711898 13:0.852187 14:0.320564 15:-0.0916819 
32 1:0.0596115 2:0.431351 3:-0.369532 4:0.300571 5:-0.401164 6:-0.357582 7:-0.27616 8:-0.279397 9:-0.35877 10:0.807654 11:0.904617 12:0.533041 13:0.836275 14:0.628993 15:0.392367 
32 1:0.058573 2:-0.297208 3:-0.432311 4:0.472681 5:-0.401164 6:-0.357582 7:-0.283964 8:-0.284915 9:-0.432188 10:-0.562285 11:-0.348206 12:0.194468 13:-0.448224 14:-0.276776 15:-0.506984 
32 1:0.056751 2:0.0212983 3:-0.243912 4:0.149434 5:-0.401164 6:-0.357582 7:0.0273042 8:0.0271229 9:-0.294465 10:0.218931 11:-0.0922081 12:0.767298 13:0.708444 14:0.905651 15:-0.292413 
32 1:0.0566231 2:-0.00505092 3:-0.376475 4:0.268361 5:-0.401164 6:-0.357582 7:-0.303606 8:-0.306754 9:-0.35877 10:0.329131 11:0.388164 12:0.504058 13:0.427015 14:0.643958 15:-0.0448489 
32 1:0.056142 2:0.0145731 3:-0.129508 4:0.0811305 5:0.177199 6:-0.158205 7:0.287787 8:0.284461 9:-0.111814 10:0.627536 11:0.729736 12:0.469316 13:0.77029 14:0.110104 15:0.24161 
32 1:0.0552745 2:-0.0241838 3:-0.522487 4:-0.40785 5:-0.000783132 6:0.200175 7:-0.27616 8:-0.279397 9:-0.35877 10:-0.461208 11:-0.258686 12:-0.223815 13:-0.257658 14:0.0256989 15:0.705723 
32 1:0.0540373 2:0.304614 3:-0.49196 4:0.0902577 5:-0.401164 6:-0.357582 7:-0.27616 8:-0.279397 9:-0.35877 10:0.548858 11:0.657992 12:0.801723 13:-0.0901692 14:0.842195 15:0.260152 
32 1:0.0532448 2:-0.21567 3:-0.49196 4:0.0615936 5:-0.401164 6:-0.357582 7:-0.27616 8:-0.279397 9:-0.35877 10:-0.406758 11:-0.192358 12:-0.223815 13:-0.214602 14:0.462254 15:-0.160406 
32 1:0.0527384 2:0.173219 3:-0.416588 4:0.153131 5:-0.401164 6:-0.357582 7:-0.150969 8:-0.153823 9:-0.35877 10:0.0571381 11:0.259812 12:0.0954214 13:0.22178 14:0.527666 15:-0.197199 
32 1:0.0516157 2:-0.525231 3:0.225823 4:-0.366 5:-0.401164 6:-0.357582 7:-0.27616 8:-0.279397 9:-0.35877 10:-0.3101 11:-0.176799 12:-0.223815 13:0.358554 14:-0.413935 15:-0.160406 
32 1:0.0507356 2:0.16803 3:-0.0956065 4:0.0653277 5:-0.401164 6:-0.357582 7:-0.302432 8:-0.305479 9:-0.35877 10:0.487256 11:0.618754 12:0.689212 13:0.383982 14:0.33848 15:-0.370189 
32 1:0.0498559 2:0.316574 3:-0.385617 4:0.155583 5:-0.44191 6:-0.357582 7:-0.27616 8:-0.279397 9:-0.385114 10:0.330195 11:0.889788 12:0.385152 13:0.927367 14:0.928089 15:0.75151 
32 1:0.0496995 2:-0.00615902 3:-0.421491 4:0.0365249 5:-0.401164 6:-0.357582 7:-0.27616 8:-0.279397 9:-0.35877 10:-0.157651 11:0.772843 12:0.106563 13:-0.14795 14:0.837285 15:-0.265442 
32 1:0.0464729 2:0.143507 3:-0.0125099 4:0.0227383 5:-0.484467 6:-0.180362 7:-0.128966 8:-0.133473 9:-0.342864 10:0.38787 11:0.00476065 12:0.702744 13:0.0443662 14:-0.296036 15:-0.262986 
32 1:0.0459927 2:0.221686 3:0.0881743 4:0.0137988 5:-0.401164 6:-0.26203 7:-0.27616 8:-0.279397 9:-0.35877 10:0.586131 11:0.728937 12:0.0918366 13:0.876638 14:0.726056 15:0.242732 
32 1:0.0441876 2:0.00861002 3:-0.570515 4:0.0190988 5:-0.401164 6:-0.43752 7:-0.27616 8:-0.279397 9:-0.35877 10:0.168671 11:0.701964 12:0.216173 13:0.790143 14:0.663434 15:0.147114 
32 1:0.0417326 2:0.257094 3:0.0222686 4:-0.120078 5:-0.401164 6:-0.357582 7:-0.27616 8:-0.279397 9:-0.375094 10:0.6986 11:0.823972 12:0.458299 13:0.806292 14:0.693739 15:-0.166757 
32 1:0.041061 2:0.147801 3:-0.0863863 4:-0.0291026 5:-0.401164 6:-0.357582 7:0.018195 8:0.0232445 9:-0.421503 10:0.186365 11:0.214064 12:0.372976 13:0.126727 14:0.704352 15:0.0986455 
32 1:0.0407267 2:0.223735 3:-0.49196 4:0.0528352 5:-0.401164 6:-0.357582 7:-0.27616 8:-0.279397 9:-0.35877 10:0.318702 11:0.330714 12:-0.400784 13:0.796714 14:0.554154 15:0.201285 
32 1:0.0393682 2:0.374811 3:-0.39623 4:0.0239376 5:-0.401164 6:-0.209241 7:-0.27616 8:-0.279397 9:-0.35877 10:0.743927 11:0.634334 12:0.109365 13:0.904648 14:0.867294 15:0.0332875 
32 1:0.0384534 2:-0.0192489 3:0.0174001 4:0.0130301 5:-0.401164 6:-0.357582 7:0.290249 8:0.306965 9:0.749575 10:0.0144509 11:0.311245 12:-0.223815 13:-0.214602 14:0.770205 15:-0.177109 
32 1:0.0366059 2:0.203473 3:-0.106941 4:-0.0286908 5:-0.367621 6:-0.357582 7:-0.323098 8:-0.326518 9:-0.031029 10:0.660395 11:0.464602 12:0.677189 13:0.88935 14:0.900839 15:0.641307 
32 1:0.036587 2:0.0265648 3:-0.49196 4:0.238752 5:-0.532828 6:-0.357582 7:-0.27616 8:-0.279397 9:-0.35877 10:0.103622 11:0.336078 12:-0.0213631 13:0.535913 14:0.307228 15:-0.110057 
32 1:0.0351046 2:-0.355406 3:-0.49196 4:0.38818 5:-0.401164 6:-0.357582 7:-0.27616 8:-0.279397 9:-0.35877 10:-0.42574 11:-0.192358 12:-0.223815 13:-0.214602 14:-0.311237 15:-0.220312 
32 1:0.0349962 2:0.281745 3:0.0383975 4:-0.0740141 5:0.232528 6:0.311451 7:-0.27616 8:-0.279397 9:-0.35877 10:0.731021 11:0.873292 12:0.40247 13:0.883212 14:0.86371 15:-0.157536 
32 1:0.0346038 2:-0.517448 3:0.231679 4:-0.366 5:-0.401164 6:-0.357582 7:-0.27616 8:-0.279397 9:-0.35877 10:-0.534133 11:-0.315149 12:-0.223815 13:-0.224846 14:-0.508712 15:-0.0131397 
32 1:0.0343087 2:-0.0264597 3:0.0328123 4:0.187613 5:-0.491082 6:0.205662 7:-0.297072 8:-0.300626 9:-0.377408 10:-0.182965 11:-0.198324 12:-0.447048 13:0.30537 14:-0.191376 15:-0.267117 
32 1:0.0329472 2:0.19112 3:-0.181399 4:0.261346 5:-0.452757 6:-0.27936 7:-0.27616 8:-0.279397 9:-0.35877 10:0.301111 11:0.701376 12:0.668021 13:0.836052 14:0.707679 15:0.372759 
32 1:0.0328395 2:-0.0277972 3:-0.208922 4:0.107896 5:-0.435486 6:-0.357582 7:-0.300842 8:-0.302195 9:-0.35877 10:-0.131901 11:0.596974 12:0.236801 13:-0.0800825 14:0.645222 15:-0.245357 
32 1:0.0323677 2:0.361437 3:-0.503355 4:0.0484032 5:-0.401164 6:-0.357582 7:-0.27616 8:-0.279397 9:-0.35877 10:0.24402 11:0.500347 12:0.674325 13:0.62559 14:0.616048 15:0.536996 
32 1:0.0320577 2:-0.367788 3:-0.407283 4:0.38733 5:-0.401164 6:-0.262031 7:-0.27616 8:-0.279397 9:-0.35877 10:-0.628816 11:-0.382033 12:0.0371977 13:-0.388935 14:-0.289982 15:-0.538943 
32 1:0.0301648 2:0.180489 3:0.637931 4:-0.160072 5:-0.401164 6:-0.357582 7:-0.27616 8:-0.279397 9:-0.35877 10:0.795735 11:0.512367 12:0.221275 13:0.888365 14:0.798448 15:0.487773 
32 1:0.0291257 2:0.0161729 3:-0.115667 4:0.115442 5:-0.401164 6:-0.357582 7:0.369023 8:0.345138 9:-0.178565 10:0.245092 11:0.58304 12:-0.223815 13:0.653776 14:0.78519 15:0.158459 
32 1:0.0285315 2:0.0735491 3:-0.395967 4:0.119921 5:-0.45385 6:-0.375625 7:-0.255366 8:-0.260005 9:-0.35877 10:0.143043 11:0.670639 12:0.180963 13:0.32231 14:0.623169 15:-0.316497 
32 1:0.0279181 2:0.296898 3:-0.472331 4:0.0787061 5:-0.401164 6:-0.40572 7:-0.27616 8:-0.279397 9:-0.35877 10:0.615428 11:0.501435 12:0.818295 13:0.852457 14:0.859043 15:0.510216 
32 1:0.0272499 2:-0.2923 3:-0.443851 4:0.0789126 5:-0.408454 6:-0.357582 7:-0.291767 8:-0.294417 9:-0.380628 10:-0.250414 11:-0.201494 12:0.0795175 13:0.223804 14:-0.317233 15:0.306248 
32 1:0.0270971 2:0.410824 3:-0.307534 4:0.308847 5:-0.353038 6:-0.400233 7:-0.27616 8:-0.279397 9:-0.35877 10:0.824647 11:0.924109 12:0.128044 13:0.898077 14:0.799911 15:0.524261 
32 1:0.0261103 2:-0.144689 3:-0.260422 4:0.428463 5:-0.454131 6:-0.357582 7:-0.048452 8:-0.0483097 9:-0.047769 10:-0.320745 11:-0.441968 12:0.425479 13:-0.534252 14:-0.304273 15:0.276282 
32 1:0.0256487 2:-0.246985 3:0.0847068 4:0.541538 5:-0.105003 6:0.226998 7:0.158453 8:0.155593 9:0.301256 10:-0.586022 11:-0.509832 12:-0.268813 13:-0.115471 14:-0.643614 15:0.0286905 
32 1:0.0210071 2:0.149795 3:-0.364982 4:0.227212 5:-0.355704 6:0.100632 7:-0.286663 8:-0.289399 9:-0.35877 10:0.405281 11:0.799781 12:0.0345991 13:0.487004 14:0.373329 15:0.205481 
32 1:0.0206809 2:-0.436722 3:-0.49196 4:0.158269 5:-0.401164 6:-0.357582 7:-0.27616 8:-0.279397 9:-0.35877 10:-0.393208 11:-0.158514 12:-0.223815 13:-0.257487 14:-0.379247 15:-0.170533 
32 1:0.018609 2:-0.248457 3:-0.0024046 4:-0.0226406 5:-0.41873 6:-0.28397 7:-0.288486 8:-0.287515 9:-0.35877 10:0.446176 11:0.484913 12:0.455069 13:0.889219 14:0.85856 15:-0.0155411 
32 1:0.0175565 2:0.115469 3:-0.297096 4:0.0386676 5:-0.411757 6:-0.409758 7:-0.169236 8:-0.168676 9:-0.35877 10:0.408735 11:0.769251 12:0.694573 13:0.843191 14:0.484952 15:0.0204755 
32 1:0.016395 2:0.210932 3:-0.49196 4:0.0469359 5:-0.401164 6:-0.357582 7:-0.27616 8:-0.279397 9:-0.35877 10:-0.108931 11:0.346608 12:-0.420965 13:0.774517 14:0.841348 15:0.116848 
32 1:0.0148874 2:0.224035 3:-0.230669 4:-0.0600226 5:-0.401164 6:-0.357582 7:-0.0484139 8:-0.0547146 9:-0.364424 10:0.519266 11:0.888945 12:0.746117 13:0.543659 14:0.533524 15:0.018555 
32 1:0.0128705 2:0.148177 3:-0.49196 4:0.204956 5:-0.401164 6:-0.357582 7:-0.27616 8:-0.279397 9:-0.35877 10:0.225012 11:0.788899 12:0.659788 13:0.866762 14:0.696621 15:-0.0917566 
32 1:0.0127204 2:0.132602 3:-0.382955 4:0.187355 5:-0.401164 6:-0.0606824 7:-0.27616 8:-0.279397 9:-0.35877 10:0.630786 11:0.741822 12:0.460405 13:0.82891 14:0.774628 15:0.131402 
32 1:0.012467 2:-0.539224 3:0.128744 4:-0.366 5:-0.401164 6:-0.357582 7:-0.27616 8:-0.279397 9:-0.35877 10:-0.438783 11:-0.158494 12:-0.284361 13:-0.214602 14:-0.344783 15:-0.171533 
32 1:0.0119764 2:0.0346769 3:-0.274495 4:0.296085 5:-0.439401 6:-0.321744 7:-0.27616 8:-0.279397 9:-0.35877 10:-0.0342776 11:0.417425 12:0.0224787 13:0.106959 14:0.557074 15:-0.0862838 
32 1:0.00754136 2:0.0691184 3:-0.572444 4:-0.532054 5:0.106796 6:-0.409828 7:-0.27616 8:-0.279397 9:-0.35877 10:0.141396 11:0.543448 12:0.306703 13:0.728357 14:-0.311237 15:0.300087 
32 1:0.00751576 2:0.0353251 3:-0.371385 4:0.092268 5:-0.401164 6:-0.343583 7:-0.27616 8:-0.279397 9:-0.35877 10:0.00384767 11:0.782628 12:0.195535 13:0.943977 14:0.922869 15:0.0514373 
32 1:0.00735787 2:-0.461714 3:-0.0433395 4:0.2182 5:-0.401164 6:-0.357582 7:-0.27616 8:-0.279397 9:-0.35877 10:-0.0656913 11:-0.237727 12:-0.223815 13:0.605115 14:-0.521348 15:-0.00437396 
32 1:0.00726174 2:-0.311807 3:0.0856129 4:0.0592972 5:-0.425701 6:-0.382364 7:-0.307393 8:-0.312255 9:-0.35877 10:-0.372064 11:-0.230189 12:0.0900969 13:-0.00587806 14:-0.420181 15:0.0817367 
32 1:0.00313191 2:-0.118158 3:-0.49196 4:0.103524 5:-0.401164 6:-0.357582 7:-0.27616 8:-0.279397 9:-0.35877 10:-0.406758 11:-0.192358 12:-0.223815 13:-0.214602 14:0.409694 15:-0.160406 
32 1:0.00287797 2:-0.0906547 3:0.0334892 4:0.138645 5:-0.484048 6:-0.371399 7:-0.143713 8:-0.139637 9:-0.385668 10:0.112188 11:0.114199 12:0.550637 13:0.162861 14:-0.362971 15:-0.200474 
32 1:0.00265752 2:0.0345301 3:-0.306566 4:0.0012652 5:-0.401164 6:-0.357582 7:-0.27616 8:-0.279397 9:-0.35877 10:0.186268 11:0.812294 12:-0.20913 13:0.423241 14:0.148487 15:-0.256789 
32 1:0.00212929 2:0.179961 3:-0.549559 4:0.00529596 5:-0.401164 6:-0.357582 7:-0.27616 8:-0.279397 9:-0.35877 10:0.443896 11:0.640272 12:0.0386967 13:0.793739 14:0.568778 15:-0.0024784 
32 1:0.00104825 2:-0.162872 3:0.0413018 4:0.395019 5:-0.451249 6:-0.324498 7:-0.27616 8:-0.279397 9:-0.35877 10:-0.194726 11:0.00469905 12:0.526722 13:0.138725 14:-0.407704 15:0.178914 
32 1:0.000998776 2:0.256879 3:-0.365178 4:-0.00883638 5:-0.401164 6:-0.357582 7:-0.27616 8:-0.279397 9:-0.35877 10:0.273359 11:0.421683 12:0.429335 13:0.752421 14:0.55564 15:0.594018 
32 1:0.00055649 2:0.222123 3:-0.507108 4:0.0907371 5:-0.401164 6:-0.357582 7:-0.27616 8:-0.279397 9:-0.35877 10:0.577458 11:0.566864 12:-0.0988812 13:0.606442 14:0.359675 15:0.178282 
32 1:-0.00281243 2:0.195716 3:-0.512471 4:0.0772973 5:-0.401164 6:-0.357582 7:-0.27616 8:-0.279397 9:-0.35877 10:0.244973 11:0.797009 12:0.477459 13:0.572983 14:0.60306 15:0.531338 
32 1:-0.00335604 2:-0.0428449 3:-0.383056 4:0.117773 5:-0.401164 6:-0.357582 7:-0.158811 8:-0.155625 9:-0.282238 10:0.0775119 11:-0.0220733 12:-0.223815 13:0.653999 14:0.725934 15:-0.251869 
32 1:-0.00438867 2:-0.0896124 3:-0.353277 4:-0.309774 5:0.0960754 6:0.218225 7:-0.204694 8:-0.206737 9:-0.313038 10:0.45287 11:0.79811 12:-0.0826262 13:0.688103 14:0.253693 15:0.375362 
32 1:-0.00547772 2:-0.156358 3:-0.253662 4:-0.0255989 5:-0.443442 6:-0.357582 7:-0.178321 8:-0.179485 9:-0.391454 10:0.101753 11:-0.423408 12:0.630748 13:0.3073 14:-0.340022 15:-0.265519 
32 1:-0.00649759 2:0.117714 3:-0.0350997 4:0.103888 5:-0.408435 6:-0.379394 7:-0.285315 8:-0.288936 9:-0.35877 10:0.609193 11:0.649335 12:-0.26157 13:0.624524 14:0.713072 15:0.24569 
32 1:-0.00726149 2:-0.00763887 3:-0.174736 4:-0.0240028 5:-0.435955 6:-0.357582 7:-0.314493 8:-0.316895 9:-0.171642 10:0.662363 11:0.849728 12:0.615181 13:0.794914 14:0.690191 15:0.357525 
32 1:-0.00846351 2:-0.371585 3:-0.49196 4:0.0738504 5:-0.421216 6:-0.357582 7:-0.27616 8:-0.279397 9:-0.35877 10:-0.146166 11:0.227441 12:-0.223815 13:0.0396811 14:-0.194327 15:-0.000457646 
32 1:-0.0089203 2:-0.275719 3:-0.257239 4:-0.0198949 5:-0.401164 6:0.424582 7:0.0634482 8:0.0582231 9:-0.17007 10:-0.500347 11:-0.25899 12:-0.0285298 13:-0.256047 14:-0.113921 15:-0.318103 
32 1:-0.00908916 2:-0.419162 3:-0.49196 4:0.330319 5:-0.401164 6:-0.357582 7:-0.27616 8:-0.279397 9:-0.35877 10:-0.423098 11:-0.233005 12:-0.223815 13:-0.214602 14:-0.200853 15:-0.181905 
32 1:-0.00935818 2:-0.367686 3:-0.517779 4:0.171947 5:-0.401164 6:-0.357582 7:-0.299221 8:-0.302045 9:-0.35877 10:-0.184734 11:-0.140785 12:0.0525849 13:0.183574 14:-0.257304 15:0.496441 
32 1:-0.00961573 2:0.687494 3:-0.198795 4:-0.11922 5:-0.401164 6:-0.357582 7:-0.27616 8:-0.279397 9:-0.35877 10:0.669288 11:0.952137 12:0.529449 13:0.887435 14:0.903298 15:0.73647 
32 1:-0.00966002 2:0.258969 3:-0.507996 4:0.0899535 5:-0.401164 6:-0.357582 7:-0.282124 8:-0.285208 9:-0.35877 10:0.222183 11:0.710652 12:0.0606159 13:0.767778 14:0.540465 15:0.264045 
32 1:-0.00997419 2:-0.0909652 3:-0.466186 4:0.225891 5:-0.401164 6:-0.357582 7:-0.32303 8:-0.326674 9:-0.404507 10:0.152695 11:0.476428 12:0.447798 13:0.211687 14:0.0843525 15:-0.176505 
32 1:-0.0103675 2:0.396262 3:-0.162143 4:0.130599 5:-0.408583 6:-0.39112 7:-0.296886 8:-0.299343 9:-0.35877 10:0.844571 11:0.76249 12:0.124695 13:0.892136 14:0.410985 15:0.00269736 
32 1:-0.0104695 2:-0.193189 3:-0.120418 4:0.239512 5:-0.294747 6:-0.206383 7:-0.27616 8:-0.279397 9:-0.35877 10:0.731037 11:0.83207 12:0.241421 13:0.821723 14:0.716412 15:0.0957365 
32 1:-0.0123925 2:-0.4578 3:0.0731791 4:-0.0449082 5:-0.414175 6:-0.357582 7:-0.297585 8:-0.301057 9:-0.411707 10:-0.406319 11:0.00215356 12:-0.223815 13:-0.246391 14:-0.0986102 15:-0.189288 
32 1:-0.0140224 2:-0.0546353 3:-0.357982 4:0.0490654 5:-0.401164 6:-0.357582 7:0.0776757 8:0.0691887 9:-0.407662 10:-0.166719 11:0.205765 12:-0.223815 13:0.0897376 14:0.653022 15:-0.206481 
32 1:-0.0153594 2:-0.131367 3:0.556012 4:-0.297864 5:-0.408195 6:-0.357582 7:-0.27616 8:-0.279397 9:-0.35877 10:-0.406758 11:-0.192358 12:-0.223815 13:-0.214602 14:0.0270436 15:-0.160406 
32 1:-0.0162802 2:0.00697961 3:-0.205448 4:0.182361 5:-0.360906 6:-0.394486 7:-0.27616 8:-0.279397 9:-0.369853 10:0.336353 11:0.819647 12:0.337517 13:0.905109 14:0.879695 15:0.177275 
32 1:-0.017215 2:-0.165294 3:-0.451202 4:0.345117 5:-0.393817 6:0.0307761 7:-0.306657 8:-0.30978 9:-0.35877 10:-0.206494 11:-0.386521 12:0.440223 13:-0.430125 14:-0.324121 15:-0.382938 
32 1:-0.0172192 2:-0.464824 3:0.503625 4:-0.366 5:-0.401164 6:-0.357582 7:-0.27616 8:-0.279397 9:-0.35877 10:-0.461552 11:-0.227645 12:-0.30791 13:-0.214602 14:-0.371222 15:-0.195768 
32 1:-0.0174987 2:-0.178343 3:-0.334458 4:0.0180852 5:-0.401164 6:-0.357582 7:0.120975 8:0.120865 9:0.0556331 10:0.538003 11:0.688183 12:0.46451 13:0.856435 14:0.895291 15:0.0971434 
32 1:-0.0193704 2:-0.0699554 3:-0.140954 4:0.405897 5:-0.47438 6:-0.372986 7:-0.312007 8:-0.315656 9:-0.383998 10:0.0969672 11:0.0112752 12:0.459879 13:-0.0669286 14:-0.392827 15:0.00763911 
32 1:-0.0220756 2:0.0274845 3:-0.267979 4:-0.0245102 5:-0.408472 6:-0.367938 7:-0.307735 8:-0.312488 9:-0.35877 10:0.688466 11:0.59068 12:0.102687 13:0.748303 14:0.42316 15:0.0327759 
32 1:-0.0221649 2:-0.261994 3:-0.29707 4:0.111925 5:-0.401164 6:-0.357582 7:-0.27616 8:-0.279397 9:-0.397011 10:-0.248551 11:-0.120013 12:-0.390484 13:-0.0762999 14:-0.313941 15:0.106496 
32 1:-0.0229121 2:-0.401995 3:-0.227662 4:0.253394 5:-0.401164 6:-0.290221 7:-0.27616 8:-0.279397 9:-0.35877 10:-0.640596 11:-0.466577 12:0.274202 13:-0.44399 14:-0.353973 15:-0.539743 
32 1:-0.0229808 2:0.404127 3:-0.514531 4:-0.0273885 5:-0.41752 6:-0.357582 7:-0.27616 8:-0.279397 9:-0.35877 10:0.565222 11:0.798259 12:0.651253 13:0.773607 14:0.611953 15:0.154147 
32 1:-0.0237681 2:0.0136395 3:-0.0421194 4:-0.143924 5:-0.401164 6:-0.357582 7:-0.336308 8:-0.338715 9:-0.330166 10:0.214045 11:-0.0493945 12:0.638063 13:0.662107 14:0.825838 15:-0.362407 
32 1:-0.0243686 2:0.186292 3:-0.0903582 4:0.0880992 5:-0.520759 6:-0.381622 7:-0.0245329 8:-0.023802 9:-0.384538 10:0.668905 11:-0.127558 12:0.766491 13:0.0793901 14:-0.392218 15:0.0211818 
32 1:-0.0244504 2:-0.219056 3:-0.49196 4:0.0987673 5:-0.401164 6:-0.357582 7:-0.27616 8:-0.279397 9:-0.35877 10:-0.406758 11:-0.192358 12:-0.223815 13:-0.214602 14:0.0695232 15:-0.160406 
32 1:-0.0245378 2:0.519489 3:-0.49196 4:0.0451702 5:-0.164299 6:-0.357582 7:-0.27616 8:-0.279397 9:-0.35877 10:0.880784 11:0.656577 12:0.219393 13:0.947167 14:0.642967 15:-0.164693 
32 1:-0.0246199 2:-0.0460343 3:-0.49196 4:-0.138933 5:-0.401164 6:-0.357582 7:-0.27616 8:-0.279397 9:-0.35877 10:0.812427 11:0.82684 12:-0.000378523 13:0.899428 14:0.541187 15:0.468518 
32 1:-0.0266534 2:-0.333753 3:0.326939 4:-0.366 5:-0.401164 6:-0.357582 7:-0.27616 8:-0.279397 9:-0.35877 10:-0.406758 11:-0.192358 12:-0.223815 13:-0.214602 14:-0.125913 15:-0.160406 
32 1:-0.0273524 2:0.236751 3:-0.49196 4:0.0267691 5:-0.401164 6:-0.357582 7:-0.27616 8:-0.279397 9:-0.35877 10:0.370785 11:0.263145 12:-0.393748 13:0.766446 14:0.496353 15:0.00976128 
32 1:-0.0281992 2:-0.226297 3:-0.49196 4:-0.0677315 5:-0.401164 6:-0.357582 7:-0.27616 8:-0.279397 9:-0.35877 10:-0.406758 11:-0.192358 12:-0.223815 13:-0.214602 14:0.449692 15:-0.160406 
32 1:-0.0288964 2:-0.0568393 3:-0.49196 4:0.0930212 5:-0.401164 6:-0.357582 7:-0.27616 8:-0.279397 9:-0.35877 10:-0.104766 11:0.0337299 12:-0.223815 13:0.13601 14:-0.174145 15:-0.00675699 
32 1:-0.0289599 2:0.22368 3:-0.49196 4:0.190479 5:-0.401164 6:-0.357582 7:-0.27616 8:-0.279397 9:-0.35877 10:0.314156 11:0.488892 12:-0.02437 13:0.396218 14:0.596929 15:0.0286582 
32 1:-0.0292335 2:0.0859255 3:-0.1922 4:0.0694713 5:-0.401164 6:-0.279024 7:-0.27616 8:-0.279397 9:-0.35877 10:0.457657 11:0.623203 12:0.063016 13:0.871152 14:0.87646 15:-0.0941734 
32 1:-0.0293911 2:-0.483419 3:-0.364064 4:0.320002 5:-0.389584 6:-0.470349 7:-0.27616 8:-0.279397 9:-0.296088 10:-0.612153 11:-0.432673 12:0.291463 13:-0.39791 14:-0.336004 15:-0.548764 
32 1:-0.0294207 2:0.388555 3:-0.529303 4:-0.051067 5:-0.401164 6:-0.357582 7:-0.27616 8:-0.279397 9:-0.35877 10:0.487083 11:0.781178 12:0.473657 13:0.715539 14:0.682524 15:0.250679 
32 1:-0.0302646 2:-0.0107245 3:-0.120405 4:-0.179361 5:-0.401164 6:-0.357582 7:-0.27616 8:-0.279397 9:-0.406278 10:0.132548 11:-0.128783 12:0.625179 13:0.634546 14:0.603253 15:-0.217012 
32 1:-0.0310111 2:-0.134531 3:-0.505052 4:-0.380179 5:0.0487371 6:-0.614612 7:-0.318734 8:-0.320497 9:-0.443052 10:-0.441355 11:-0.27594 12:-0.223815 13:-0.232869 14:-0.347509 15:0.163602 
32 1:-0.0314423 2:0.320646 3:-0.49196 4:-0.00938663 5:-0.401164 6:-0.357582 7:-0.27616 8:-0.279397 9:-0.35877 10:0.0785174 11:0.733122 12:0.509913 13:0.861267 14:0.925974 15:0.111839 
32 1:-0.0336405 2:0.358923 3:-0.49196 4:0.0494338 5:-0.401164 6:-0.357582 7:-0.27616 8:-0.279397 9:-0.35877 10:0.781966 11:0.538788 12:-0.298914 13:0.893438 14:0.53186 15:0.0462017 
32 1:-0.0340959 2:-0.277922 3:-0.49196 4:0.054757 5:-0.401164 6:-0.357582 7:-0.27616 8:-0.279397 9:-0.35877 10:-0.406758 11:-0.192358 12:-0.223815 13:-0.214602 14:0.419067 15:-0.160406 
32 1:-0.0341064 2:0.183747 3:-0.631621 4:0.0466838 5:-0.401164 6:-0.357582 7:-0.246832 8:-0.24616 9:-0.356637 10:0.549224 11:0.791727 12:0.760618 13:0.166755 14:0.638518 15:-0.0905872 
32 1:-0.034545 2:0.536888 3:-0.49196 4:-0.0182101 5:-0.401164 6:-0.357582 7:-0.27616 8:-0.279397 9:-0.35877 10:0.710825 11:0.609181 12:0.246142 13:0.816001 14:0.646018 15:0.0959639 
32 1:-0.0350298 2:-0.242418 3:0.0301521 4:0.185668 5:-0.07367 6:0.0425266 7:0.0954972 8:0.0907521 9:-0.115321 10:-0.421031 11:-0.422939 12:0.233537 13:-0.43111 14:-0.274155 15:-0.0291397 
32 1:-0.0379669 2:0.110487 3:-0.322422 4:0.0664158 5:-0.423073 6:-0.415416 7:-0.282124 8:-0.285222 9:-0.35877 10:0.0975052 11:0.654977 12:0.210104 13:0.856291 14:0.672713 15:0.36275 
32 1:-0.0386164 2:-0.339849 3:-0.316777 4:0.272149 5:-0.0372279 6:-0.439907 7:-0.27616 8:-0.279397 9:-0.35877 10:-0.58605 11:-0.390288 12:0.29734 13:-0.414419 14:-0.255046 15:-0.48762 
32 1:-0.0386166 2:-0.470927 3:-0.54328 4:-0.351482 5:-0.220807 6:0.446289 7:-0.326468 8:-0.32786 9:-0.331412 10:-0.522093 11:-0.314692 12:-0.25389 13:-0.361949 14:-0.476861 15:-0.232856 
32 1:-0.0410718 2:-0.0341642 3:-0.0571919 4:-0.101013 5:-0.401164 6:-0.357582 7:-0.138244 8:-0.140663 9:-0.290252 10:0.04775 11:-0.146616 12:0.270275 13:0.604034 14:0.743266 15:0.0676843 
32 1:-0.0425477 2:0.333359 3:-0.50242 4:-0.375132 5:0.215134 6:-0.376071 7:0.0514519 8:0.0402042 9:-0.409686 10:0.420781 11:0.510448 12:0.00417207 13:0.586862 14:0.563364 15:0.889264 
32 1:-0.0429897 2:0.121494 3:-0.580219 4:0.0708784 5:-0.401164 6:-0.357582 7:-0.27616 8:-0.279397 9:-0.407076 10:0.189077 11:-0.0657377 12:0.572002 13:0.763003 14:0.894359 15:-0.286019 
32 1:-0.0435053 2:0.24821 3:-0.207685 4:-0.366 5:-0.431857 6:-0.0772948 7:-0.285444 8:-0.288695 9:-0.35877 10:-0.215714 11:-0.23368 12:-0.175409 13:0.108292 14:0.765009 15:0.232912 
32 1:-0.0437889 2:0.132784 3:-0.363382 4:-0.0147975 5:-0.401164 6:-0.0111376 7:-0.27616 8:-0.279397 9:-0.35877 10:0.363656 11:0.69255 12:0.481187 13:0.359861 14:0.268695 15:0.203806 
32 1:-0.0442002 2:-0.360969 3:-0.371609 4:0.239978 5:-0.401164 6:-0.357582 7:-0.27616 8:-0.279397 9:-0.387931 10:-0.57661 11:-0.418248 12:0.309308 13:-0.470766 14:-0.264367 15:-0.444036 
32 1:-0.045642 2:-0.281616 3:-0.0965048 4:-0.094241 5:-0.299038 6:-0.228625 7:-0.0443378 8:-0.0479402 9:-0.401527 10:0.619639 11:0.767989 12:0.303299 13:0.804059 14:0.687084 15:-0.205502 
32 1:-0.0456787 2:-0.0849841 3:-0.324377 4:0.243352 5:-0.44933 6:-0.420789 7:-0.303742 8:-0.305294 9:-0.35877 10:0.212316 11:0.728625 12:0.0658504 13:0.771683 14:0.666209 15:0.171764 
32 1:-0.0457781 2:-0.0320218 3:-0.354708 4:0.0972085 5:-0.401164 6:-0.357582 7:-0.155187 8:-0.159439 9:-0.296332 10:0.377237 11:0.66502 12:0.532593 13:0.771589 14:0.513204 15:-0.113398 
32 1:-0.0462424 2:0.17211 3:-0.206545 4:-0.138807 5:-0.401164 6:-0.357582 7:-0.27616 8:-0.279397 9:-0.371369 10:0.567783 11:0.671226 12:-0.223815 13:0.714165 14:0.524641 15:0.19656 
32 1:-0.0486469 2:0.354711 3:-0.49196 4:-0.0459489 5:-0.401164 6:-0.357582 7:-0.27616 8:-0.279397 9:-0.35877 10:0.764665 11:0.872314 12:-0.260726 13:0.762137 14:0.443553 15:0.296801 
32 1:-0.0487244 2:-0.0298583 3:-0.138778 4:0.00154999 5:-0.401164 6:-0.357582 7:-0.27616 8:-0.279397 9:-0.317526 10:0.16674 11:-0.0279379 12:0.402782 13:0.663938 14:0.297865 15:-0.378072 
32 1:-0.0490424 2:-0.00223262 3:-0.49196 4:-0.366 5:0.0747047 6:-0.357582 7:-0.0688098 8:-0.0821331 9:-0.307507 10:0.416463 11:0.450513 12:0.209725 13:0.795129 14:0.578872 15:-0.148689 
32 1:-0.0493088 2:-0.318446 3:-0.332251 4:0.253786 5:-0.125474 6:-0.357582 7:0.184912 8:0.169193 9:-0.329982 10:-0.28149 11:-0.407301 12:0.368868 13:-0.449021 14:-0.349997 15:-0.594392 
32 1:-0.0497844 2:0.203137 3:-0.458799 4:-0.00743796 5:-0.409118 6:-0.357582 7:-0.27616 8:-0.279397 9:-0.35877 10:0.143324 11:0.581416 12:0.0885447 13:0.25583 14:0.553907 15:-0.138609 
32 1:-0.0508153 2:-0.342526 3:-0.16481 4:0.0136288 5:-0.401164 6:-0.357582 7:-0.27616 8:-0.279397 9:-0.35877 10:-0.532539 11:-0.345935 12:-0.168239 13:-0.438102 14:-0.531206 15:0.375029 
32 1:-0.0532814 2:-0.349983 3:-0.49196 4:0.106635 5:-0.401164 6:-0.357582 7:-0.27616 8:-0.279397 9:-0.35877 10:-0.406758 11:-0.192358 12:-0.223815 13:-0.214602 14:0.391912 15:-0.160406 
32 1:-0.0534986 2:-0.498752 3:-0.289307 4:-0.203868 5:-0.56167 6:-0.238921 7:-0.192991 8:-0.199191 9:-0.476155 10:-0.710575 11:-0.394702 12:-0.443033 13:-0.39046 14:-0.554323 15:-0.508525 
32 1:-0.0535143 2:0.0809794 3:-0.33726 4:-0.030985 5:-0.418995 6:-0.357582 7:-0.27616 8:-0.279397 9:-0.35877 10:0.332051 11:0.671535 12:-0.0304565 13:0.709439 14:0.446705 15:-0.0634038 
32 1:-0.0550323 2:0.0481363 3:0.110905 4:-0.178743 5:-0.17425 6:-0.357582 7:-0.196575 8:-0.204728 9:-0.374964 10:0.390994 11:0.633241 12:0.0988167 13:0.731956 14:0.571566 15:-0.173971 
32 1:-0.0550352 2:0.376214 3:-0.504049 4:-0.0159405 5:-0.401164 6:-0.357582 7:-0.27616 8:-0.279397 9:-0.35877 10:0.720457 11:0.804679 12:-0.223815 13:0.875503 14:0.835502 15:0.646799 
32 1:-0.0555197 2:-0.311903 3:-0.49196 4:-0.0231894 5:-0.401164 6:-0.357582 7:-0.27616 8:-0.279397 9:-0.35877 10:-0.310376 11:-0.179244 12:-0.316728 13:0.223758 14:-0.268794 15:0.583359 
32 1:-0.0556218 2:-0.382387 3:-0.259555 4:-0.0991 5:0.11641 6:0.183384 7:-0.36355 8:-0.364612 9:-0.480168 10:-0.511444 11:-0.334601 12:0.264066 13:-0.521439 14:-0.224188 15:-0.22613 
32 1:-0.0558357 2:-0.1943 3:-0.214833 4:0.2142 5:-0.401164 6:-0.357582 7:-0.27616 8:-0.279397 9:-0.369882 10:-0.261385 11:-0.0203857 12:0.31457 13:0.0850345 14:-0.24803 15:0.287867 
32 1:-0.0567241 2:-0.175649 3:-0.49196 4:-0.36131 5:0.399701 6:-0.357582 7:-0.27616 8:-0.279397 9:-0.35877 10:-0.406758 11:-0.192358 12:-0.223815 13:-0.214602 14:-0.311237 15:-0.160406 
32 1:-0.0570312 2:-0.201644 3:-0.122297 4:0.0554145 5:-0.401164 6:-0.357582 7:-0.27616 8:-0.279397 9:-0.35877 10:-0.477626 11:-0.230349 12:-0.338607 13:-0.208095 14:-0.166882 15:-0.200232 
32 1:-0.0588359 2:-0.426801 3:-0.528049 4:0.128544 5:-0.401164 6:-0.357582 7:-0.27616 8:-0.279397 9:-0.35877 10:0.0518156 11:0.639433 12:-0.291116 13:0.382129 14:-0.600954 15:-0.160406 
32 1:-0.0589178 2:0.117483 3:-0.362388 4:-0.0601576 5:-0.401164 6:-0.357582 7:-0.27616 8:-0.279397 9:-0.35877 10:0.591257 11:0.777118 12:-0.141672 13:0.621645 14:0.225406 15:0.455614 
32 1:-0.0591279 2:-0.378421 3:-0.49196 4:-0.0496229 5:-0.401164 6:-0.357582 7:-0.27616 8:-0.279397 9:-0.35877 10:-0.406758 11:-0.192358 12:-0.223815 13:-0.214602 14:0.148227 15:-0.160406 
32 1:-0.0594422 2:0.149849 3:-0.563642 4:-0.00491796 5:-0.401164 6:-0.357582 7:-0.27616 8:-0.279397 9:-0.35877 10:0.374166 11:0.626826 12:0.71027 13:0.646903 14:0.39737 15:-0.134476 
32 1:-0.0597909 2:0.183209 3:-0.452557 4:0.0285888 5:-0.401164 6:-0.357582 7:-0.27616 8:-0.279397 9:-0.35877 10:0.68476 11:0.749946 12:0.288084 13:0.858427 14:0.202575 15:0.598327 
32 1:-0.0604905 2:-0.0647499 3:0.285648 4:0.314288 5:-0.462633 6:-0.357582 7:-0.285699 8:-0.28897 9:0.0988933 10:-0.0532608 11:0.747844 12:0.0619031 13:-0.165835 14:0.852076 15:-0.155712 
32 1:-0.0610138 2:0.00612841 3:-0.0271018 4:0.226694 5:-0.356185 6:0.337947 7:0.310997 8:0.311323 9:-0.257361 10:0.550552 11:0.361629 12:0.728786 13:0.575877 14:0.781946 15:0.064608 
32 1:-0.0611358 2:-0.212242 3:-0.49196 4:0.275552 5:-0.401164 6:-0.357582 7:-0.27616 8:-0.279397 9:-0.35877 10:-0.31173 11:-0.0656825 12:0.112355 13:0.0907898 14:-0.388639 15:0.138232 
32 1:-0.0614613 2:0.338512 3:-0.169509 4:-0.0564924 5:-0.401164 6:-0.357582 7:-0.27616 8:-0.279397 9:-0.35877 10:0.582618 11:0.626368 12:-0.277427 13:0.667533 14:0.194156 15:0.0690012 
32 1:-0.0625678 2:-0.338203 3:-0.444956 4:0.31584 5:-0.487102 6:-0.273922 7:-0.3224 8:-0.327571 9:-0.35877 10:-0.55025 11:-0.196038 12:-0.113118 13:-0.361109 14:-0.196921 15:-0.381295 
32 1:-0.0632048 2:-0.330841 3:-0.49196 4:0.287639 5:-0.401164 6:-0.357582 7:-0.27616 8:-0.279397 9:-0.35877 10:-0.406758 11:-0.192358 12:-0.223815 13:-0.214602 14:-0.311237 15:-0.160406 
32 1:-0.0637769 2:0.204514 3:-0.398486 4:-0.151038 5:-0.401164 6:-0.357582 7:-0.27616 8:-0.279397 9:-0.35877 10:0.587572 11:0.612271 12:0.0978517 13:0.796651 14:0.540416 15:-0.105038 
32 1:-0.0641181 2:-0.450567 3:-0.0792946 4:-0.100649 5:-0.436566 6:-0.357582 7:-0.335515 8:-0.339218 9:-0.505406 10:-0.438397 11:-0.0525395 12:-0.223815 13:-0.216793 14:-0.148004 15:-0.335079 
32 1:-0.0649524 2:0.15534 3:-0.519522 4:-0.0339768 5:-0.401164 6:-0.357582 7:-0.27616 8:-0.279397 9:-0.35877 10:0.644114 11:0.672959 12:-0.267441 13:0.631251 14:0.271768 15:-0.0796715 
32 1:-0.0659503 2:0.222743 3:-0.49196 4:0.0456685 5:-0.401164 6:-0.357582 7:-0.27616 8:-0.279397 9:-0.35877 10:0.179869 11:0.586388 12:-0.229694 13:0.824307 14:0.835158 15:0.345256 
32 1:-0.0669378 2:0.0137114 3:-0.19545 4:-0.168827 5:-0.401164 6:-0.357582 7:0.0558654 8:0.0580417 9:-0.255459 10:-0.243687 11:-0.482373 12:0.29975 13:0.0824302 14:0.919964 15:0.00358023 
32 1:-0.0670075 2:0.142179 3:0.0267827 4:-0.187049 5:-0.401164 6:-0.357582 7:-0.303185 8:-0.306077 9:-0.35877 10:0.0513912 11:0.355681 12:0.0467151 13:0.495765 14:0.852483 15:0.653482 
32 1:-0.0671544 2:-0.098409 3:-0.45013 4:-0.251739 5:0.234466 6:-0.104603 7:-0.331918 8:-0.334462 9:-0.423657 10:0.455437 11:0.418836 12:-0.0335959 13:0.820005 14:0.249138 15:0.126301 
32 1:-0.06723 2:-0.0738279 3:-0.395156 4:0.0553123 5:-0.401164 6:-0.357582 7:-0.27616 8:-0.279397 9:-0.384929 10:-0.168142 11:0.324555 12:-0.0548585 13:0.00613487 14:0.325838 15:-0.149519 
32 1:-0.067402 2:-0.217219 3:-0.412614 4:-0.0320671 5:-0.401164 6:-0.176891 7:-0.27616 8:-0.279397 9:-0.35877 10:0.495963 11:0.91169 12:0.264117 13:0.859367 14:0.787822 15:0.0531023 
32 1:-0.0674566 2:-0.113133 3:-0.584639 4:0.11843 5:-0.209976 6:-0.357582 7:-0.28178 8:-0.282896 9:-0.417284 10:-0.244922 11:-0.40128 12:0.405086 13:-0.760573 14:-0.00307118 15:-0.528136 
32 1:-0.0676546 2:-0.263629 3:-0.360816 4:0.0460753 5:-0.401164 6:-0.357582 7:-0.308964 8:-0.312762 9:-0.35877 10:0.248394 11:0.657293 12:0.426629 13:0.502392 14:0.607282 15:0.0446155 
32 1:-0.067844 2:-0.0747081 3:-0.306647 4:0.0289246 5:0.312231 6:-0.36397 7:-0.27616 8:-0.279397 9:-0.35877 10:0.0730008 11:0.472375 12:-0.311879 13:0.53233 14:-0.226267 15:0.0626188 
32 1:-0.0679812 2:0.0497399 3:-0.190444 4:-0.0814198 5:-0.0993496 6:-0.267811 7:-0.202478 8:-0.208604 9:-0.396094 10:0.459946 11:0.713606 12:0.416183 13:0.40376 14:0.347824 15:-0.290246 
32 1:-0.0684246 2:0.469968 3:-0.538115 4:-0.0781004 5:-0.401164 6:-0.310717 7:-0.27616 8:-0.279397 9:-0.35877 10:0.465812 11:0.866789 12:0.306493 13:0.818603 14:0.68637 15:0.709808 
32 1:-0.0699312 2:-0.342622 3:-0.121959 4:-0.0402385 5:-0.434991 6:-0.357582 7:0.0738072 8:0.0731635 9:0.0369958 10:-0.553078 11:-0.317993 12:-0.326404 13:-0.427579 14:-0.511974 15:-0.131962 
32 1:-0.0708162 2:0.208531 3:-0.498441 4:-0.0417532 5:-0.00360571 6:-0.357582 7:-0.294166 8:-0.296409 9:-0.35877 10:0.292266 11:0.785346 12:0.323892 13:0.913118 14:0.692547 15:0.673646 
32 1:-0.0708803 2:0.241399 3:-0.561783 4:-0.0180433 5:-0.401164 6:-0.357582 7:-0.27616 8:-0.279397 9:-0.35877 10:0.473374 11:0.843826 12:-0.223815 13:0.749817 14:0.71177 15:0.380898 
32 1:-0.0721361 2:-0.403982 3:-0.49196 4:-0.0235726 5:-0.401164 6:-0.357582 7:-0.27616 8:-0.279397 9:-0.35877 10:-0.237207 11:0.516271 12:-0.223815 13:0.0920252 14:-0.129327 15:-0.0533173 
32 1:-0.072308 2:0.184298 3:-0.49196 4:-0.00477963 5:-0.401164 6:-0.357582 7:-0.27616 8:-0.279397 9:-0.35877 10:0.237036 11:0.535117 12:0.658969 13:0.830165 14:0.476345 15:-0.17259 
32 1:-0.0732789 2:0.0396571 3:-0.094009 4:-0.153974 5:-0.401164 6:-0.366157 7:-0.103731 8:-0.112614 9:-0.35877 10:-0.304442 11:-0.149989 12:-0.150135 13:-0.0887749 14:0.838746 15:-0.237842 
32 1:-0.0738426 2:-0.312218 3:-0.0540792 4:-0.366 5:-0.401164 6:-0.357582 7:-0.27616 8:-0.279397 9:-0.35877 10:-0.406758 11:-0.192358 12:-0.223815 13:-0.214602 14:-0.311237 15:-0.160406 
32 1:-0.0739051 2:0.113833 3:-0.283592 4:0.206765 5:-0.401164 6:-0.357582 7:-0.296312 8:-0.299472 9:-0.35877 10:0.431479 11:-0.0548845 12:0.686168 13:0.210192 14:-0.400688 15:0.129805 
32 1:-0.0744517 2:-0.572875 3:-0.417305 4:0.058518 5:-0.401164 6:-0.377025 7:-0.27616 8:-0.279397 9:-0.35877 10:-0.520795 11:-0.30393 12:-0.223815 13:-0.297782 14:-0.353886 15:-0.160406 
32 1:-0.0748129 2:-0.032399 3:-0.425466 4:0.0471303 5:-0.401164 6:-0.409883 7:-0.27616 8:-0.279397 9:-0.35877 10:0.181955 11:0.499851 12:-0.0275677 13:0.474503 14:0.277732 15:-0.218739 
32 1:-0.0748251 2:-0.0978731 3:-0.127972 4:-0.144851 5:0.0199877 6:-0.505267 7:-0.388116 8:-0.390385 9:-0.433294 10:0.384534 11:0.526748 12:0.0294529 13:0.809036 14:0.848173 15:0.13565 
32 1:-0.0752067 2:-0.0362839 3:-0.00647816 4:-0.181003 5:-0.00264619 6:0.0555907 7:-0.300295 8:-0.30213 9:-0.35877 10:0.423355 11:0.802612 12:0.102682 13:0.896669 14:0.702586 15:0.165469 
32 1:-0.0752322 2:-0.278616 3:-0.374006 4:0.334085 5:-0.179019 6:-0.259334 7:-0.0362008 8:-0.0453818 9:-0.334986 10:-0.548761 11:-0.540846 12:0.211623 13:-0.72207 14:-0.311969 15:0.0891729 
32 1:-0.075258 2:0.166026 3:-0.49196 4:-0.0142983 5:-0.401164 6:-0.357582 7:-0.27616 8:-0.279397 9:-0.35877 10:0.550813 11:0.112183 12:0.89366 13:-0.0403736 14:0.749623 15:0.143316 
32 1:-0.0760338 2:0.335526 3:-0.548024 4:0.229654 5:-0.438738 6:-0.292512 7:-0.27616 8:-0.279397 9:-0.35877 10:0.697599 11:0.545154 12:0.0217714 13:0.867755 14:0.68107 15:0.362623 
32 1:-0.0763245 2:0.0567987 3:-0.275353 4:-0.174336 5:0.191064 6:-0.39393 7:-0.0709909 8:-0.0768413 9:-0.396855 10:0.300346 11:0.308764 12:0.581027 13:0.85197 14:0.760869 15:-0.0832469 
32 1:-0.0784419 2:-0.0767943 3:-0.49196 4:-0.0483159 5:-0.401164 6:-0.357582 7:-0.27616 8:-0.279397 9:-0.35877 10:-0.244814 11:0.627471 12:-0.480616 13:-0.161302 14:0.795998 15:-0.143154 
32 1:-0.0793999 2:-0.15212 3:-0.358412 4:0.134722 5:0.0193824 6:-0.251111 7:-0.260755 8:-0.264821 9:-0.317023 10:-0.120946 11:-0.311496 12:0.447608 13:-0.361505 14:-0.268021 15:-0.499213 
32 1:-0.0802822 2:-0.58906 3:-0.18427 4:-0.127351 5:-0.401164 6:-0.375748 7:-0.27616 8:-0.279397 9:-0.35877 10:-0.514874 11:-0.281196 12:-0.223815 13:-0.279903 14:-0.348049 15:0.0037365 
32 1:-0.081799 2:0.0369373 3:-0.49196 4:-0.123693 5:-0.401164 6:-0.357582 7:-0.27616 8:-0.279397 9:-0.35877 10:0.435533 11:0.466306 12:0.198499 13:0.861335 14:0.327229 15:-0.17925 
32 1:-0.0823734 2:-0.439517 3:-0.16826 4:0.0723937 5:-0.401164 6:-0.357582 7:-0.294645 8:-0.297776 9:-0.35877 10:-0.383261 11:-0.194283 12:-0.169385 13:-0.44188 14:-0.538828 15:0.382744 
32 1:-0.0823893 2:-0.086715 3:0.169663 4:-0.162756 5:-0.401164 6:-0.165016 7:0.137384 8:0.130173 9:0.106352 10:-0.575155 11:-0.458392 12:-0.0908296 13:-0.275932 14:-0.407248 15:-0.215987 
32 1:-0.0830393 2:0.0929482 3:-0.534389 4:-0.030943 5:-0.401164 6:-0.357582 7:-0.27616 8:-0.279397 9:0.289396 10:0.768659 11:0.91508 12:0.603269 13:0.848965 14:0.868976 15:0.501806 
32 1:-0.0830771 2:-0.23023 3:-0.541354 4:-0.0128647 5:-0.401164 6:-0.357582 7:-0.27616 8:-0.279397 9:-0.379581 10:-0.167159 11:0.77569 12:0.548243 13:0.805162 14:0.566592 15:-0.392015 
32 1:-0.0832361 2:0.243053 3:-0.49196 4:0.032723 5:-0.401164 6:-0.357582 7:-0.27616 8:-0.279397 9:-0.35877 10:0.629427 11:0.721747 12:-0.223815 13:0.684596 14:0.6433 15:0.489741 
32 1:-0.0849333 2:0.0287646 3:-0.205187 4:-0.0575737 5:-0.401164 6:-0.357582 7:-0.223441 8:-0.226454 9:-0.35877 10:0.134517 11:-0.0726442 12:0.695651 13:0.246141 14:0.590356 15:-0.364776 
32 1:-0.0855199 2:0.0341314 3:-0.350923 4:0.0819227 5:-0.401164 6:-0.366605 7:-0.289821 8:-0.293524 9:-0.35877 10:0.531225 11:0.566341 12:0.444512 13:0.575376 14:0.737262 15:0.360998 
32 1:-0.0885201 2:0.0154191 3:-0.49196 4:-0.00226839 5:-0.421839 6:-0.357582 7:-0.27616 8:-0.279397 9:-0.35877 10:-0.131914 11:0.231305 12:-0.0434984 13:0.0887257 14:0.525518 15:-0.0260046 
32 1:-0.0898702 2:0.105616 3:-0.49196 4:0.0255568 5:-0.401164 6:-0.357582 7:-0.27616 8:-0.279397 9:-0.35877 10:-0.162185 11:-0.0448856 12:0.381006 13:0.0251917 14:0.802891 15:-0.251552 
32 1:-0.090182 2:-0.335528 3:-0.274852 4:0.161805 5:-0.692822 6:-0.208532 7:-0.0378539 8:-0.0429276 9:-0.336514 10:-0.377881 11:-0.443952 12:0.432161 13:-0.493564 14:-0.295846 15:-0.186543 
32 1:-0.0902203 2:-0.50959 3:-0.348944 4:0.0474097 5:-0.120676 6:-0.232884 7:-0.306046 8:-0.307257 9:-0.35877 10:-0.654013 11:-0.46406 12:0.149895 13:-0.426268 14:-0.250908 15:-0.55974 
32 1:-0.09071 2:-0.193435 3:-0.230002 4:-0.0931276 5:-0.401164 6:-0.275021 7:-0.27616 8:-0.279397 9:-0.35877 10:0.757039 11:0.88672 12:0.189314 13:0.895285 14:0.903472 15:-0.0979591 
32 1:-0.0934515 2:-0.030149 3:-0.49196 4:0.0743787 5:-0.401164 6:-0.357582 7:-0.27616 8:-0.279397 9:-0.35877 10:0.0603526 11:-0.0668615 12:0.0722257 13:0.683196 14:0.666483 15:-0.302841 
32 1:-0.0935329 2:-0.560037 3:-0.0107423 4:-0.366 5:-0.401164 6:-0.370256 7:-0.27616 8:-0.279397 9:-0.35877 10:-0.220239 11:0.139306 12:-0.207862 13:0.119113 14:-0.415343 15:0.0260971 
32 1:-0.0941851 2:-0.186813 3:-0.517221 4:0.134003 5:-0.299383 6:-0.412034 7:-0.327492 8:-0.327528 9:-0.35877 10:0.706614 11:0.726656 12:0.0278855 13:0.797505 14:0.640523 15:0.0957758 
32 1:-0.0959429 2:-0.169876 3:-0.368788 4:0.313195 5:-0.401164 6:-0.398351 7:-0.120894 8:-0.124471 9:-0.237321 10:0.314912 11:0.852671 12:0.0473846 13:0.667808 14:-0.249021 15:0.239202 
32 1:-0.0963173 2:-0.240509 3:-0.0396842 4:-0.381024 5:-0.401164 6:-0.357582 7:-0.27616 8:-0.279397 9:0.489984 10:-0.058716 11:0.474641 12:-0.223815 13:-0.0764392 14:0.125651 15:0.346555 
32 1:-0.0965595 2:-0.0684931 3:-0.537018 4:0.209759 5:-0.401164 6:-0.357582 7:-0.27616 8:-0.279397 9:-0.35877 10:0.0210533 11:-0.042982 12:0.391683 13:0.483012 14:0.479281 15:-0.20275 
32 1:-0.09667 2:0.633248 3:-0.0638834 4:-0.0699202 5:-0.401164 6:-0.357582 7:-0.27616 8:-0.279397 9:-0.369884 10:0.763398 11:0.697714 12:0.250224 13:0.800291 14:0.860573 15:0.470246 
32 1:-0.0986793 2:-0.427502 3:-0.0829849 4:-0.366 5:-0.401164 6:-0.357582 7:-0.27616 8:-0.279397 9:-0.35877 10:-0.406758 11:-0.192358 12:-0.223815 13:-0.214602 14:-0.183382 15:-0.177602 
32 1:-0.0990563 2:-0.370095 3:-0.49196 4:-0.0641488 5:-0.401164 6:-0.357582 7:-0.27616 8:-0.279397 9:-0.35877 10:-0.406758 11:-0.192358 12:-0.223815 13:-0.214602 14:0.229463 15:-0.160406 
32 1:-0.100817 2:0.292161 3:-0.534949 4:-0.0580891 5:-0.401164 6:-0.399856 7:-0.27616 8:-0.279397 9:-0.35877 10:0.791586 11:0.895869 12:0.212967 13:0.946221 14:0.84129 15:0.037782 
32 1:-0.101709 2:-0.274776 3:-0.167594 4:0.00661343 5:-0.0473752 6:-0.322685 7:-0.117735 8:-0.122288 9:-0.314 10:-0.516468 11:-0.49324 12:0.411405 13:-0.474457 14:-0.284333 15:-0.428249 
32 1:-0.10171 2:0.306589 3:-0.232536 4:0.0411218 5:-0.401164 6:-0.469418 7:-0.27616 8:-0.279397 9:-0.35877 10:0.827513 11:0.731844 12:0.0327019 13:0.920226 14:0.753943 15:-0.0308854 
32 1:-0.101971 2:-0.206422 3:-0.49196 4:-0.140937 5:-0.401164 6:-0.357582 7:-0.27616 8:-0.279397 9:-0.35877 10:-0.406758 11:-0.192358 12:-0.223815 13:-0.214602 14:0.414683 15:-0.160406 
32 1:-0.102242 2:-0.188448 3:-0.270822 4:0.0695574 5:-0.190311 6:-0.375837 7:-0.32658 8:-0.329836 9:-0.422147 10:0.178757 11:0.419096 12:0.284336 13:0.403581 14:0.197479 15:-0.0937859 
32 1:-0.102251 2:-0.3832 3:-0.237152 4:-0.0294909 5:-0.401164 6:-0.357582 7:-0.27616 8:-0.279397 9:-0.379855 10:-0.48341 11:-0.326732 12:-0.131642 13:-0.363133 14:-0.552831 15:0.162923 
32 1:-0.102749 2:0.315022 3:-0.283255 4:-0.0996491 5:-0.401164 6:-0.357582 7:-0.29414 8:-0.297331 9:-0.35877 10:0.565969 11:0.737924 12:0.511645 13:0.73898 14:0.63113 15:0.446874 
32 1:-0.103338 2:-0.370101 3:-0.49196 4:0.103597 5:-0.401164 6:-0.357582 7:-0.27616 8:-0.279397 9:-0.35877 10:-0.419795 11:-0.207173 12:-0.223815 13:-0.214602 14:-0.141419 15:-0.160406 
32 1:-0.105732 2:-0.30548 3:-0.0779581 4:0.137667 5:-0.446606 6:-0.408146 7:0.339451 8:0.342206 9:-0.35877 10:0.170876 11:0.481987 12:0.420104 13:0.852745 14:0.61043 15:0.0991161 
32 1:-0.105812 2:-0.512658 3:-0.517785 4:-0.372887 5:-0.0257562 6:-0.368537 7:-0.288607 8:-0.29156 9:-0.35877 10:-0.564632 11:-0.380921 12:0.367903 13:-0.405295 14:0.242501 15:-0.160406 
32 1:-0.106666 2:0.0264935 3:-0.328088 4:0.232726 5:-0.401164 6:-0.357582 7:0.121012 8:0.116438 9:0.0201401 10:0.492779 11:0.812492 12:-0.223815 13:0.672742 14:0.659958 15:0.235856 
32 1:-0.108262 2:0.231583 3:-0.167059 4:0.00550962 5:-0.418228 6:-0.357582 7:-0.310586 8:-0.31277 9:-0.369618 10:0.596146 11:0.736359 12:-0.0824541 13:0.703479 14:0.692248 15:-0.0232662 
32 1:-0.108494 2:0.399324 3:-0.064417 4:0.00742333 5:-0.401164 6:-0.357582 7:-0.27616 8:-0.279397 9:-0.35877 10:0.792028 11:0.889271 12:0.369922 13:0.876469 14:0.380833 15:0.534535 
32 1:-0.110073 2:-0.346698 3:-0.135137 4:-0.0828025 5:-0.437655 6:-0.357582 7:-0.323038 8:-0.325756 9:-0.438437 10:0.139589 11:-0.284977 12:0.484592 13:-0.457744 14:-0.551051 15:0.208087 
32 1:-0.110876 2:0.158519 3:-0.327545 4:0.021288 5:-0.420714 6:-0.357582 7:-0.294426 8:-0.297095 9:-0.400071 10:0.18697 11:0.628181 12:-0.0316872 13:0.831643 14:0.866662 15:0.332882 
32 1:-0.110879 2:-0.285613 3:-0.276149 4:0.0968828 5:-0.401164 6:-0.357582 7:-0.27616 8:-0.279397 9:-0.35877 10:-0.105063 11:0.14135 12:0.986221 13:-0.214602 14:-0.0418351 15:-0.160406 
32 1:-0.112019 2:0.444434 3:-0.167493 4:0.155348 5:-0.401164 6:-0.393593 7:0.278125 8:0.269809 9:-0.35877 10:0.476226 11:0.361732 12:0.699703 13:0.783162 14:0.990499 15:0.79352 
32 1:-0.112162 2:-0.0641764 3:-0.247233 4:-0.167539 5:-0.414694 6:-0.369134 7:0.0771863 8:0.0713023 9:0.0806588 10:0.341738 11:0.508651 12:0.433248 13:0.311821 14:0.582383 15:-0.222544 
32 1:-0.114309 2:-0.286677 3:-0.49196 4:-0.142506 5:-0.401164 6:-0.357582 7:-0.27616 8:-0.279397 9:-0.35877 10:-0.406758 11:-0.192358 12:-0.223815 13:-0.214602 14:0.451146 15:-0.160406 
32 1:-0.11637 2:0.181292 3:-0.506932 4:-0.00699827 5:-0.401164 6:-0.357582 7:-0.27616 8:-0.279397 9:-0.35877 10:0.296353 11:0.209482 12:0.0668431 13:0.737924 14:0.619175 15:0.128354 
32 1:-0.116387 2:0.81562 3:-0.49196 4:-0.366 5:-0.401164 6:0.0554832 7:-0.27616 8:-0.279397 9:-0.35877 10:0.859773 11:0.791357 12:-0.0298215 13:0.944272 14:0.644927 15:0.764448 
32 1:-0.116535 2:-0.0787287 3:-0.195646 4:-0.0235219 5:-0.401164 6:-0.157582 7:0.0955945 8:0.0678599 9:-0.35877 10:0.341006 11:0.158647 12:0.146372 13:0.596212 14:0.84139 15:0.157548 
32 1:-0.117507 2:-0.0606402 3:-0.0914852 4:-0.284684 5:-0.445173 6:-0.376552 7:0.216228 8:0.209899 9:-0.223726 10:0.468705 11:0.722899 12:0.653224 13:0.294531 14:0.626927 15:-0.269123 
32 1:-0.118011 2:-0.486392 3:-0.500874 4:0.129463 5:-0.401164 6:-0.357582 7:-0.27616 8:-0.279397 9:-0.380291 10:-0.517273 11:-0.281062 12:-0.111533 13:-0.412357 14:-0.529476 15:0.274242 
32 1:-0.11808 2:-0.230456 3:-0.49196 4:-0.156722 5:-0.401164 6:-0.357582 7:-0.27616 8:-0.279397 9:-0.35877 10:-0.406758 11:-0.192358 12:-0.223815 13:-0.214602 14:0.306416 15:-0.160406 
32 1:-0.118611 2:0.0963727 3:-0.49196 4:-0.366 5:0.031395 6:-0.357582 7:-0.286038 8:-0.289011 9:-0.371888 10:0.467501 11:0.316985 12:0.307437 13:0.768429 14:0.197748 15:-0.162021 
32 1:-0.119198 2:0.610655 3:-0.520215 4:-0.224275 5:-0.401164 6:-0.407122 7:-0.27616 8:-0.279397 9:-0.35877 10:0.526086 11:0.855789 12:0.616742 13:0.873579 14:0.914249 15:0.686663 
32 1:-0.119757 2:0.472807 3:-0.508916 4:-0.0884408 5:-0.401164 6:-0.363682 7:-0.27616 8:-0.279397 9:-0.372551 10:0.562099 11:0.461956 12:0.656741 13:0.944625 14:0.870705 15:0.754703 
32 1:-0.12023 2:-0.359451 3:-0.240422 4:-0.0651342 5:-0.0794264 6:0.306327 7:-0.314772 8:-0.317601 9:-0.2189 10:-0.556141 11:-0.414719 12:0.100839 13:-0.454404 14:-0.365425 15:-0.523434 
32 1:-0.120599 2:-0.391344 3:-0.268663 4:-0.412374 5:-0.6197 6:0.225832 7:-0.322433 8:-0.324107 9:-0.192174 10:-0.398369 11:0.185293 12:-0.367455 13:0.283359 14:-0.795805 15:0.0815088 
32 1:-0.120907 2:-0.514197 3:-0.255916 4:-0.0685903 5:-0.330792 6:-0.46949 7:-0.442111 8:-0.446643 9:-0.240468 10:-0.57027 11:0.0361739 12:-0.17337 13:0.396813 14:-0.525294 15:0.0612067 
32 1:-0.121643 2:-0.42381 3:-0.49196 4:0.00951401 5:-0.401164 6:-0.357582 7:-0.27616 8:-0.279397 9:-0.35877 10:-0.585553 11:-0.346068 12:0.0929259 13:-0.402299 14:-0.375593 15:-0.547997 
32 1:-0.121686 2:-0.546329 3:-0.00872512 4:-0.366 5:-0.401164 6:-0.357582 7:-0.27616 8:-0.279397 9:-0.35877 10:-0.406758 11:-0.192358 12:-0.223815 13:-0.214602 14:-0.311237 15:-0.160406 
32 1:-0.121788 2:-0.333553 3:-0.259676 4:-0.274844 5:-0.0340385 6:0.329074 7:-0.195582 8:-0.207735 9:-0.263808 10:-0.435837 11:-0.446596 12:0.259533 13:-0.457665 14:-0.227552 15:-0.00365292 
32 1:-0.12231 2:-0.0110654 3:-0.123441 4:-0.00398939 5:-0.248805 6:-0.204553 7:-0.396548 8:-0.40047 9:-0.318822 10:0.32027 11:0.468024 12:0.233756 13:0.922334 14:0.93992 15:0.216098 
32 1:-0.122932 2:-0.433454 3:-0.380285 4:0.134894 5:-0.252771 6:-0.357582 7:-0.121003 8:-0.134222 9:-0.387756 10:-0.625686 11:-0.400599 12:0.100117 13:-0.533997 14:-0.345475 15:-0.145589 
32 1:-0.123395 2:-0.454434 3:-0.542239 4:-0.0396904 5:-0.401164 6:-0.357582 7:-0.310889 8:-0.313873 9:-0.42075 10:-0.0498972 11:0.156641 12:-0.223815 13:0.153517 14:-0.138928 15:-0.368776 
32 1:-0.124899 2:-0.066657 3:0.0490021 4:-0.0724604 5:-0.121753 6:-0.357582 7:-0.322291 8:-0.328941 9:-0.386248 10:0.56192 11:0.767961 12:0.0354834 13:0.72525 14:0.686702 15:-0.119347 
32 1:-0.125158 2:0.428544 3:-0.49196 4:-0.118907 5:-0.401164 6:-0.357582 7:-0.27616 8:-0.279397 9:-0.35877 10:0.609095 11:0.750441 12:0.778539 13:0.770407 14:0.565157 15:0.0472489 
32 1:-0.125688 2:0.154873 3:-0.49196 4:-0.366 5:-0.128474 6:-0.357582 7:-0.27616 8:-0.279397 9:-0.35877 10:-0.368396 11:-0.210429 12:-0.223815 13:0.208686 14:0.854707 15:0.244945 
32 1:-0.127104 2:-0.433617 3:-0.375338 4:0.132947 5:-0.492779 6:-0.22922 7:-0.277878 8:-0.282589 9:-0.35877 10:-0.523249 11:-0.367688 12:0.377547 13:-0.41823 14:-0.321223 15:-0.650304 
32 1:-0.127338 2:-0.26842 3:-0.482131 4:-0.048256 5:-0.401164 6:-0.371229 7:-0.319732 8:-0.321967 9:-0.376724 10:-0.10625 11:0.376987 12:0.430225 13:0.623897 14:-0.188276 15:0.506326 
32 1:-0.128272 2:0.527816 3:-0.533461 4:-0.188929 5:-0.401164 6:-0.378571 7:-0.27616 8:-0.279397 9:-0.35877 10:0.563291 11:0.644112 12:0.141086 13:0.748222 14:0.686923 15:0.902064 
32 1:-0.129306 2:0.0793011 3:-0.392018 4:0.0541166 5:-0.401164 6:-0.357582 7:-0.27616 8:-0.279397 9:-0.36991 10:0.597968 11:0.66582 12:0.256148 13:0.885238 14:0.194385 15:-0.0852154 
32 1:-0.129315 2:-0.134942 3:0.177195 4:-0.170833 5:-0.401164 6:0.0579927 7:0.0377311 8:0.0603802 9:0.213906 10:0.708688 11:0.896901 12:-0.223815 13:0.729884 14:0.832045 15:0.54326 
32 1:-0.12933 2:-0.134932 3:-0.349465 4:-0.423352 5:0.316692 6:-0.160909 7:-0.299335 8:-0.301069 9:-0.35877 10:0.623628 11:0.68872 12:0.0601639 13:0.648715 14:0.636908 15:0.485449 
32 1:-0.1295 2:0.0201942 3:-0.296952 4:0.134794 5:-0.450379 6:-0.357582 7:-0.308938 8:-0.312411 9:-0.35877 10:0.518584 11:0.492745 12:0.492279 13:0.873714 14:0.641383 15:0.234213 
32 1:-0.13007 2:-0.195957 3:-0.49196 4:-0.0607769 5:-0.401164 6:-0.357582 7:-0.27616 8:-0.279397 9:-0.35877 10:-0.0861638 11:0.614185 12:0.2449 13:0.649067 14:0.348198 15:0.0158817 
32 1:-0.130471 2:-0.530598 3:0.0397998 4:-0.366 5:-0.401164 6:-0.357582 7:-0.27616 8:-0.279397 9:-0.35877 10:-0.406758 11:-0.192358 12:-0.223815 13:-0.214602 14:-0.386927 15:-0.160406 
32 1:-0.132171 2:-0.402019 3:-0.268112 4:-0.074664 5:-0.417866 6:-0.357582 7:-0.216204 8:-0.219992 9:-0.290274 10:-0.447093 11:-0.332766 12:-0.226481 13:-0.303217 14:-0.538485 15:-0.425651 
32 1:-0.132487 2:-0.452942 3:-0.49196 4:0.164365 5:-0.561047 6:-0.357582 7:-0.27616 8:-0.279397 9:-0.35877 10:-0.558759 11:-0.343249 12:0.0285749 13:-0.39088 14:-0.195037 15:-0.016659 
32 1:-0.132684 2:-0.103812 3:-0.0644663 4:-0.113076 5:-0.401164 6:0.1911 7:0.606347 8:0.625507 9:0.331475 10:-0.168454 11:0.114249 12:-0.223815 13:-0.214602 14:0.688885 15:-0.191293 
32 1:-0.132769 2:-0.00957927 3:-0.49196 4:-0.0589372 5:-0.503567 6:-0.357582 7:-0.27616 8:-0.279397 9:-0.35877 10:0.119224 11:0.612629 12:0.194458 13:0.849026 14:0.651703 15:0.00644209 
32 1:-0.133592 2:-0.0746626 3:-0.50362 4:-0.0344564 5:-0.419612 6:-0.368631 7:-0.308148 8:-0.309367 9:-0.35877 10:-0.126751 11:0.257468 12:0.281885 13:0.828723 14:0.728699 15:0.500757 
32 1:-0.133688 2:-0.205053 3:-0.49196 4:-0.0410442 5:-0.401164 6:-0.357582 7:-0.27616 8:-0.279397 9:-0.35877 10:-0.377419 11:-0.306248 12:0.0370762 13:0.387962 14:-0.20107 15:0.207036 
32 1:-0.133817 2:-0.400401 3:-0.49196 4:0.381242 5:-0.401164 6:-0.357582 7:-0.27616 8:-0.279397 9:-0.35877 10:-0.315881 11:-0.124151 12:-0.223815 13:-0.140938 14:-0.332995 15:-0.170612 
32 1:-0.134373 2:-0.538028 3:0.125671 4:-0.366 5:-0.401164 6:-0.357582 7:-0.27616 8:-0.279397 9:-0.35877 10:-0.447912 11:-0.243905 12:-0.254268 13:-0.214602 14:-0.339577 15:-0.160406 
32 1:-0.134878 2:-0.127936 3:-0.512682 4:-0.10032 5:-0.401164 6:-0.357582 7:-0.285252 8:-0.28901 9:-0.35877 10:0.016052 11:0.540854 12:0.118139 13:0.414414 14:0.582449 15:0.243254 
32 1:-0.13598 2:-0.370319 3:-0.0558011 4:0.230229 5:-0.473412 6:-0.0371418 7:-0.147945 8:-0.149917 9:-0.474275 10:0.167064 11:0.391934 12:-0.347308 13:0.484162 14:0.0893782 15:0.323325 
32 1:-0.136022 2:-0.381092 3:-0.60691 4:-0.150854 5:-0.401164 6:-0.357582 7:-0.312158 8:-0.315475 9:-0.402928 10:-0.654864 11:-0.433494 12:-0.488337 13:-0.367728 14:0.675619 15:-0.446873 
32 1:-0.136402 2:0.180545 3:-0.363208 4:-0.132673 5:-0.401164 6:-0.357582 7:-0.27616 8:-0.279397 9:-0.35877 10:0.355852 11:-0.026215 12:0.801168 13:0.817573 14:0.851803 15:-0.273842 
32 1:-0.136466 2:-0.338631 3:-0.49196 4:-0.414295 5:-0.0157081 6:-0.357582 7:-0.27616 8:-0.279397 9:-0.35877 10:-0.0646579 11:0.869151 12:-0.319978 13:0.516443 14:-0.311237 15:0.166162 
32 1:-0.13738 2:-0.409777 3:-0.49196 4:0.0494516 5:-0.401164 6:-0.357582 7:-0.27616 8:-0.279397 9:-0.35877 10:-0.466206 11:-0.278917 12:0.00701957 13:-0.393333 14:-0.502103 15:0.408239 
32 1:-0.137385 2:-0.194479 3:-0.557637 4:-0.264394 5:-0.414653 6:-0.357582 7:-0.118652 8:-0.11771 9:-0.431755 10:0.399555 11:-0.366957 12:0.661043 13:0.435861 14:-0.343095 15:0.400896 
32 1:-0.137577 2:0.137713 3:-0.479732 4:0.212114 5:-0.455425 6:-0.357582 7:-0.304374 8:-0.30566 9:-0.37434 10:0.479862 11:0.0227789 12:0.723763 13:-0.00526294 14:-0.376183 15:-0.264083 
32 1:-0.137895 2:0.260991 3:-0.557691 4:-0.0780876 5:-0.401164 6:-0.37248 7:-0.27616 8:-0.279397 9:-0.35877 10:0.66952 11:0.674284 12:0.331965 13:0.878992 14:0.668586 15:0.12813 
32 1:-0.138755 2:0.769235 3:-0.265003 4:0.18633 5:-0.475393 6:-0.0222846 7:-0.27616 8:-0.279397 9:-0.35877 10:0.972019 11:0.974012 12:0.8261 13:0.97195 14:0.531462 15:0.928525 
32 1:-0.139074 2:-0.110544 3:-0.46067 4:0.172179 5:-0.25613 6:-0.135727 7:-0.191825 8:-0.200073 9:-0.388238 10:0.06707 11:-0.034073 12:0.440478 13:0.354358 14:-0.434241 15:-0.289444 
32 1:-0.139671 2:-0.334901 3:-0.49196 4:-0.0646863 5:-0.401164 6:-0.357582 7:-0.27616 8:-0.279397 9:-0.35877 10:-0.406758 11:-0.192358 12:-0.223815 13:-0.214602 14:0.411533 15:-0.160406 
32 1:-0.139687 2:-0.499688 3:-0.471296 4:0.181895 5:-0.490039 6:-0.312793 7:-0.306413 8:-0.308423 9:-0.155811 10:-0.557178 11:-0.302552 12:0.0672376 13:-0.348482 14:-0.343362 15:-0.355571 
32 1:-0.140105 2:0.289433 3:-0.515245 4:-0.0025536 5:-0.401164 6:-0.357582 7:-0.27616 8:-0.279397 9:-0.35877 10:0.574892 11:0.858971 12:-0.0272791 13:0.854145 14:0.662171 15:0.471459 
32 1:-0.141313 2:-0.437316 3:-0.173655 4:-0.366 5:-0.401164 6:-0.357582 7:-0.27616 8:-0.279397 9:-0.35877 10:-0.406758 11:-0.192358 12:-0.223815 13:-0.214602 14:-0.257015 15:-0.160406 
32 1:-0.141326 2:-0.431296 3:-0.172711 4:-0.00639444 5:-0.401164 6:-0.357582 7:-0.27616 8:-0.279397 9:-0.35877 10:-0.445325 11:-0.259192 12:-0.223815 13:-0.242787 14:-0.434477 15:-0.245998 
32 1:-0.142286 2:-0.0883248 3:-0.49196 4:-0.170707 5:-0.437741 6:-0.357582 7:-0.27616 8:-0.279397 9:-0.35877 10:0.0618639 11:0.492794 12:0.142884 13:0.765588 14:0.80553 15:0.0205712 
32 1:-0.143312 2:-0.0159841 3:-0.429783 4:0.0827991 5:-0.42362 6:-0.119875 7:-0.304009 8:-0.306332 9:-0.376528 10:0.36492 11:0.345001 12:0.0626473 13:0.659917 14:0.800522 15:0.120822 
32 1:-0.143577 2:0.0664281 3:-0.49196 4:0.0191919 5:-0.401164 6:-0.357582 7:-0.27616 8:-0.279397 9:-0.35877 10:0.368589 11:0.490988 12:-0.0111878 13:0.776402 14:0.310406 15:0.425252 
32 1:-0.145321 2:-0.269647 3:-0.49196 4:-0.0125786 5:-0.450286 6:-0.357582 7:-0.27616 8:-0.279397 9:-0.35877 10:0.320224 11:0.523015 12:-0.0295677 13:0.770841 14:0.579695 15:0.150321 
32 1:-0.145329 2:0.304199 3:-0.49196 4:-0.0619203 5:-0.401164 6:-0.357582 7:-0.27616 8:-0.279397 9:-0.35877 10:0.612897 11:0.616367 12:-0.223815 13:0.669994 14:0.690288 15:0.33601 
32 1:-0.145614 2:-0.32372 3:0.344299 4:-0.203146 5:-0.401164 6:-0.357582 7:-0.27616 8:-0.279397 9:-0.35877 10:-0.406758 11:-0.192358 12:-0.223815 13:-0.214602 14:-0.013215 15:-0.160406 
32 1:-0.146637 2:-0.036104 3:-0.0453781 4:-0.380157 5:-0.401164 6:-0.357582 7:-0.27616 8:-0.279397 9:0.774605 10:-0.136453 11:-0.173203 12:-0.223815 13:0.123317 14:0.248904 15:0.442717 
32 1:-0.148736 2:-0.414649 3:-0.0248273 4:-0.366 5:-0.401164 6:-0.357582 7:-0.27616 8:-0.279397 9:-0.35877 10:-0.406758 11:-0.192358 12:-0.223815 13:-0.214602 14:-0.352885 15:-0.160406 
32 1:-0.148902 2:-0.675601 3:-0.42367 4:0.235521 5:-0.316552 6:0.0472303 7:-0.2037 8:-0.200113 9:-0.523666 10:-0.618502 11:-0.400378 12:0.0360465 13:-0.390513 14:-0.252488 15:-0.105521 
32 1:-0.149355 2:-0.0108991 3:-0.315362 4:-0.0713314 5:-0.401164 6:0.252912 7:0.214627 8:0.206057 9:-0.35877 10:0.0730473 11:0.307524 12:0.278807 13:0.159674 14:0.700533 15:-0.279139 
32 1:-0.14937 2:-0.540491 3:0.326939 4:-0.0594496 5:-0.401164 6:-0.357582 7:-0.27616 8:-0.279397 9:-0.35877 10:-0.406758 11:-0.192358 12:-0.223815 13:-0.214602 14:-0.354624 15:-0.160406 
32 1:-0.14973 2:-0.331833 3:-0.148017 4:-0.0981973 5:-0.433057 6:-0.357582 7:-0.197281 8:-0.200036 9:-0.343572 10:-0.210604 11:-0.177179 12:0.306836 13:-0.265314 14:-0.484337 15:-0.242004 
32 1:-0.14999 2:0.375109 3:-0.444757 4:-0.00838131 5:-0.401164 6:-0.357582 7:-0.27616 8:-0.279397 9:-0.369891 10:0.832951 11:0.708132 12:0.147443 13:0.850629 14:0.156476 15:0.226624 
32 1:-0.150248 2:-0.554337 3:-0.369047 4:-0.110985 5:-0.408583 6:-0.357582 7:-0.252638 8:-0.256934 9:-0.242783 10:-0.495877 11:-0.350617 12:-0.223815 13:-0.0781631 14:-0.339695 15:-0.370207 
32 1:-0.150801 2:-0.0736711 3:-0.392001 4:0.00680557 5:-0.401164 6:-0.357582 7:-0.313001 8:-0.315536 9:-0.35877 10:-0.136202 11:0.340051 12:0.165589 13:-0.204694 14:0.794923 15:-0.234376 
32 1:-0.150877 2:-0.444847 3:0.359772 4:-0.120617 5:-0.401164 6:-0.357582 7:-0.27616 8:-0.279397 9:-0.391361 10:-0.512457 11:-0.502983 12:0.0613171 13:-0.389081 14:-0.254702 15:0.412933 
32 1:-0.151092 2:-0.529074 3:-0.0190469 4:-0.366 5:-0.401164 6:-0.357582 7:-0.27616 8:-0.279397 9:-0.35877 10:-0.433854 11:-0.192358 12:-0.223815 13:-0.244898 14:-0.311237 15:-0.193439 
32 1:-0.153266 2:-0.297142 3:-0.558407 4:-0.127357 5:-0.401164 6:-0.357582 7:-0.312499 8:-0.315533 9:-0.38745 10:-0.59392 11:-0.383952 12:-0.223815 13:-0.366406 14:0.609341 15:-0.408589 
32 1:-0.15339 2:-0.129611 3:0.376104 4:-0.366 5:-0.401164 6:-0.357582 7:-0.27616 8:-0.279397 9:-0.35877 10:0.355413 11:-0.192358 12:0.647716 13:-0.214602 14:0.192717 15:-0.177341 
32 1:-0.153561 2:0.391357 3:-0.528847 4:-0.132768 5:-0.417911 6:-0.357582 7:-0.27616 8:-0.279397 9:-0.35877 10:0.565167 11:0.920757 12:0.128311 13:0.808468 14:0.824174 15:0.315279 
32 1:-0.153812 2:-0.528713 3:-0.34327 4:-0.366 5:0.0994543 6:-0.0433525 7:-0.27616 8:-0.279397 9:-0.35877 10:-0.628945 11:-0.401955 12:-0.255307 13:-0.496671 14:-0.2767 15:-0.501795 
32 1:-0.154192 2:-0.30117 3:-0.49196 4:-0.0216277 5:-0.401164 6:-0.357582 7:-0.27616 8:-0.279397 9:-0.35877 10:0.0810686 11:0.711362 12:0.364608 13:0.838907 14:0.883023 15:0.131 
32 1:-0.154236 2:0.104027 3:-0.49196 4:-0.0828282 5:-0.515287 6:-0.357582 7:-0.27616 8:-0.279397 9:-0.35877 10:0.398015 11:0.496321 12:0.0238145 13:0.853077 14:0.747593 15:-0.180815 
32 1:-0.154283 2:-0.302845 3:-0.583326 4:-0.151714 5:-0.401164 6:-0.357582 7:-0.343929 8:-0.34743 9:-0.373876 10:-0.673608 11:-0.352412 12:-0.437755 13:-0.443117 14:0.6031 15:-0.177069 
32 1:-0.154907 2:-0.460246 3:-0.263456 4:-0.0816811 5:-0.415573 6:-0.357582 7:-0.0714629 8:-0.0794086 9:-0.35877 10:-0.456379 11:-0.310281 12:-0.102726 13:-0.379983 14:-0.553775 15:0.0535637 
32 1:-0.155222 2:0.360825 3:-0.353285 4:-0.0880751 5:-0.401164 6:-0.357582 7:-0.27616 8:-0.279397 9:-0.35877 10:0.763266 11:0.376072 12:-0.223815 13:0.804784 14:0.825871 15:0.318358 
32 1:-0.155604 2:0.399391 3:-0.495964 4:-0.018096 5:-0.41718 6:-0.395065 7:-0.282417 8:-0.284754 9:-0.35877 10:0.479323 11:0.540902 12:0.162505 13:0.838789 14:0.591409 15:0.36214 
32 1:-0.155607 2:-0.347989 3:-0.0866493 4:0.340577 5:-0.503379 6:-0.041028 7:-0.161306 8:-0.166988 9:-0.459903 10:0.0279743 11:0.474325 12:-0.382148 13:0.39209 14:0.0828877 15:0.508877 
32 1:-0.15571 2:-0.469627 3:-0.137389 4:-0.0701979 5:-0.401164 6:-0.357582 7:-0.27616 8:-0.279397 9:-0.380174 10:-0.539419 11:-0.330176 12:-0.318984 13:-0.399065 14:-0.481018 15:0.519863 
32 1:-0.155885 2:-0.489868 3:-0.113188 4:-0.372697 5:-0.401164 6:-0.357582 7:-0.27616 8:-0.279397 9:-0.35877 10:-0.406487 11:-0.272327 12:-0.223815 13:-0.063734 14:-0.00975747 15:-0.220881 
32 1:-0.156532 2:-0.394924 3:-0.49196 4:-0.116258 5:-0.401164 6:-0.357582 7:-0.27616 8:-0.279397 9:-0.35877 10:0.0207124 11:0.346721 12:-0.133374 13:0.434353 14:-0.570286 15:-0.160406 
32 1:-0.156743 2:-0.0437388 3:-0.637289 4:-0.112997 5:-0.401164 6:-0.357582 7:-0.21879 8:-0.225473 9:-0.390394 10:0.151069 11:-0.164257 12:0.748547 13:0.225438 14:0.822154 15:0.0275656 
32 1:-0.156773 2:-0.0231589 3:-0.49196 4:-0.0719778 5:-0.401164 6:-0.357582 7:-0.27616 8:-0.279397 9:-0.35877 10:-0.0138217 11:0.979212 12:-0.40199 13:0.865286 14:0.847422 15:0.229885 
32 1:-0.158704 2:-0.0369798 3:-0.541687 4:-0.0737013 5:-0.416713 6:-0.368883 7:-0.285376 8:-0.288376 9:-0.35877 10:0.318481 11:0.303913 12:-0.28729 13:0.742328 14:0.553908 15:0.412769 
32 1:-0.158871 2:-0.11046 3:-0.459277 4:-0.138343 5:0.573154 6:-0.401669 7:-0.33884 8:-0.341896 9:-0.395261 10:0.0758992 11:0.166268 12:0.104802 13:0.80425 14:0.279325 15:0.379154 
32 1:-0.160043 2:-0.476146 3:-0.531789 4:-0.0613942 5:-0.408325 6:-0.357582 7:-0.304398 8:-0.308904 9:-0.35877 10:-0.113735 11:-0.0633424 12:-0.223815 13:0.120917 14:-0.254237 15:-0.201675 
32 1:-0.161065 2:-0.530305 3:-0.399983 4:0.0460756 5:-0.401164 6:-0.357582 7:-0.27616 8:-0.279397 9:-0.35877 10:-0.719298 11:-0.44422 12:-0.121552 13:-0.472519 14:-0.377201 15:-0.485707 
32 1:-0.161748 2:-0.258777 3:-0.336385 4:0.197305 5:-0.401164 6:-0.357582 7:-0.27616 8:-0.279397 9:-0.35877 10:0.00535953 11:0.0640336 12:0.842169 13:-0.214602 14:-0.1246 15:-0.160406 
32 1:-0.161884 2:-0.149306 3:-0.378814 4:-0.104831 5:-0.401164 6:-0.357582 7:-0.27616 8:-0.279397 9:-0.368317 10:-0.0764717 11:0.720769 12:0.509378 13:-0.160509 14:0.221462 15:-0.292335 
32 1:-0.162273 2:-0.109165 3:-0.533436 4:-0.0136059 5:-0.401164 6:-0.357582 7:-0.27616 8:-0.279397 9:-0.35877 10:0.194352 11:0.669194 12:0.485892 13:0.479435 14:0.33408 15:-0.00150543 
32 1:-0.162368 2:-0.158448 3:-0.455524 4:-0.036369 5:-0.401164 6:-0.357582 7:-0.149588 8:-0.154174 9:-0.264016 10:0.259604 11:-0.0633182 12:0.56665 13:0.716988 14:0.794475 15:-0.0180763 
32 1:-0.162597 2:-0.0272193 3:-0.0245487 4:-0.117177 5:-0.0488313 6:-0.353617 7:-0.27616 8:-0.279397 9:-0.35877 10:0.403208 11:0.936429 12:0.467515 13:0.80872 14:0.779166 15:0.107659 
32 1:-0.163133 2:0.883116 3:-0.49196 4:0.00528149 5:-0.401164 6:-0.357582 7:-0.27616 8:-0.279397 9:-0.35877 10:0.893113 11:0.978007 12:0.869197 13:0.94903 14:0.898443 15:0.941831 
32 1:-0.164242 2:-0.207509 3:-0.441233 4:0.0751919 5:-0.290459 6:-0.349661 7:-0.326833 8:-0.330839 9:-0.414426 10:-0.283371 11:-0.367445 12:0.319273 13:-0.647219 14:0.386641 15:-0.229562 
32 1:-0.16512 2:-0.444753 3:-0.49196 4:0.0741796 5:-0.439519 6:-0.357582 7:-0.27616 8:-0.279397 9:-0.35877 10:-0.434072 11:-0.205992 12:0.041874 13:-0.414797 14:-0.537307 15:-0.244865 
32 1:-0.165387 2:0.866955 3:-0.49196 4:0.0199095 5:-0.410982 6:-0.357582 7:-0.27616 8:-0.279397 9:-0.35877 10:0.87126 11:0.983257 12:0.582741 13:0.942284 14:0.942668 15:0.767202 
32 1:-0.16641 2:-0.237433 3:-0.587852 4:-0.416457 5:0.143044 6:-0.432461 7:-0.27616 8:-0.279397 9:-0.35877 10:0.208326 11:0.867939 12:0.125572 13:0.736573 14:-0.311237 15:0.143793 
32 1:-0.166607 2:-0.303807 3:-0.368058 4:-0.0237449 5:-0.401164 6:-0.357582 7:-0.277371 8:-0.283602 9:-0.353679 10:-0.550275 11:-0.304429 12:-0.302128 13:-0.436501 14:-0.526367 15:0.39177 
32 1:-0.168789 2:-0.197225 3:-0.497116 4:-0.0620791 5:-0.408749 6:-0.357582 7:-0.265737 8:-0.27117 9:-0.35877 10:-0.144094 11:0.133778 12:-0.223815 13:0.0405257 14:0.333387 15:-0.0184315 
32 1:-0.170121 2:-0.387288 3:-0.0610414 4:0.251313 5:-0.259498 6:-0.286704 7:-0.27616 8:-0.279397 9:-0.35877 10:-0.478639 11:-0.360446 12:-0.150773 13:-0.470723 14:-0.565394 15:-0.503035 
32 1:-0.170963 2:-0.0233671 3:-0.49196 4:0.0524891 5:-0.401164 6:-0.357582 7:-0.27616 8:-0.279397 9:-0.35877 10:0.493225 11:0.524497 12:0.176792 13:0.902454 14:0.541363 15:0.00279013 
32 1:-0.171662 2:-0.212641 3:-0.306561 4:0.174959 5:0.123396 6:-0.369134 7:-0.27616 8:-0.279397 9:-0.35877 10:-0.181856 11:0.384513 12:-0.0867431 13:-0.144929 14:0.235332 15:-0.160406 
32 1:-0.171912 2:-0.275694 3:-0.329006 4:0.0786467 5:-0.290669 6:0.122822 7:-0.176329 8:-0.181654 9:-0.406099 10:-0.337141 11:-0.479403 12:0.286434 13:-0.317441 14:-0.29925 15:-0.20122 
